{"learner":{"attributes":{"scikit_learn":"{\"_estimator_type\": \"regressor\"}"},"feature_names":["latitude","longitude","area","city","land_val","imp_val","year_built","year_reno","sqft_lot","sqft","sqft_1","sqft_fbsmt","grade","fbsmt_grade","condition","stories","beds","bath_full","bath_3qtr","bath_half","garb_sqft","gara_sqft","wfnt","golf","greenbelt","noise_traffic","view_rainier","view_olympics","view_cascades","view_territorial","view_skyline","view_sound","view_lakewash","view_lakesamm","view_otherwater","view_other","total_baths","baths_sq","age","age_sq","is_new","sqft_log","sqft_per_room","lot_ratio","beds_sq","bed_bath_ratio","has_reno","years_since_reno","grade_sq","has_garage","garage_log","total_views","has_view","view_count","price_per_sqft","price_per_sqft_log"],"feature_types":["float","float","float","float","float","float","float","float","float","float","float","float","float","float","float","float","float","float","float","float","float","float","float","float","float","float","float","float","float","float","float","float","float","float","float","float","float","float","float","float","float","float","float","float","float","float","float","float","float","float","float","float","float","float","float","float"],"gradient_booster":{"model":{"cats":{"enc":[],"feature_segments":[],"sorted_idx":[]},"gbtree_model_param":{"num_parallel_tree":"1","num_trees":"300"},"iteration_indptr":[0,1,2,3,4,5,6,7,8,9,10,11,12,13,14,15,16,17,18,19,20,21,22,23,24,25,26,27,28,29,30,31,32,33,34,35,36,37,38,39,40,41,42,43,44,45,46,47,48,49,50,51,52,53,54,55,56,57,58,59,60,61,62,63,64,65,66,67,68,69,70,71,72,73,74,75,76,77,78,79,80,81,82,83,84,85,86,87,88,89,90,91,92,93,94,95,96,97,98,99,100,101,102,103,104,105,106,107,108,109,110,111,112,113,114,115,116,117,118,119,120,121,122,123,124,125,126,127,128,129,130,131,132,133,134,135,136,137,138,139,140,141,142,143,144,145,146,147,148,149,150,151,152,153,154,155,156,157,158,159,160,161,162,163,164,165,166,167,168,169,170,171,172,173,174,175,176,177,178,179,180,181,182,183,184,185,186,187,188,189,190,191,192,193,194,195,196,197,198,199,200,201,202,203,204,205,206,207,208,209,210,211,212,213,214,215,216,217,218,219,220,221,222,223,224,225,226,227,228,229,230,231,232,233,234,235,236,237,238,239,240,241,242,243,244,245,246,247,248,249,250,251,252,253,254,255,256,257,258,259,260,261,262,263,264,265,266,267,268,269,270,271,272,273,274,275,276,277,278,279,280,281,282,283,284,285,286,287,288,289,290,291,292,293,294,295,296,297,298,299,300],"tree_info":[0,0,0,0,0,0,0,0,0,0,0,0,0,0,0,0,0,0,0,0,0,0,0,0,0,0,0,0,0,0,0,0,0,0,0,0,0,0,0,0,0,0,0,0,0,0,0,0,0,0,0,0,0,0,0,0,0,0,0,0,0,0,0,0,0,0,0,0,0,0,0,0,0,0,0,0,0,0,0,0,0,0,0,0,0,0,0,0,0,0,0,0,0,0,0,0,0,0,0,0,0,0,0,0,0,0,0,0,0,0,0,0,0,0,0,0,0,0,0,0,0,0,0,0,0,0,0,0,0,0,0,0,0,0,0,0,0,0,0,0,0,0,0,0,0,0,0,0,0,0,0,0,0,0,0,0,0,0,0,0,0,0,0,0,0,0,0,0,0,0,0,0,0,0,0,0,0,0,0,0,0,0,0,0,0,0,0,0,0,0,0,0,0,0,0,0,0,0,0,0,0,0,0,0,0,0,0,0,0,0,0,0,0,0,0,0,0,0,0,0,0,0,0,0,0,0,0,0,0,0,0,0,0,0,0,0,0,0,0,0,0,0,0,0,0,0,0,0,0,0,0,0,0,0,0,0,0,0,0,0,0,0,0,0,0,0,0,0,0,0,0,0,0,0,0,0,0,0,0,0,0,0,0,0,0,0,0,0,0,0,0,0,0,0,0,0,0,0,0,0],"trees":[{"base_weights":[1.0885789E3,-1.7717272E5,8.7234844E5,-3.64175E5,1.0672351E5,7.3673125E5,2.5671478E6,-7.203828E5,-2.9772016E5,1.6217832E4,5.8715675E5,5.553014E5,1.2620964E6,2.008703E6,3.5247898E6,-7.9606375E5,-5.312622E5,-3.6820044E5,-1.381413E5,-1.04946984E5,1.7642255E5,5.061571E5,1.5885379E6,3.9827484E5,8.402761E5,1.0928209E6,1.82865E6,1.6401238E6,2.5610602E6,2.9643595E6,4.442092E6,-9.3751394E5,-7.7365456E5,-6.016064E5,-4.7668847E5,-4.273794E5,-3.0772366E5,-1.8824081E5,-2.9290309E4,-1.856903E5,1.8955373E4,1.0149201E5,3.45429E5,3.4072644E5,7.0011344E5,1.2710736E6,1.975552E6,2.8856838E5,5.6937644E5,7.291505E5,1.0675155E6,9.584392E5,1.3953339E6,1.5846425E6,2.0857135E6,1.4463779E6,1.870282E6,2.192573E6,2.781504E6,1.3061769E5,3.3484508E6,3.6231568E6,2.7537675E5,-4.753248E4,-4.1447434E4,-4.007587E4,-3.5730234E4,-3.4184508E4,-2.843905E4,-2.5993973E4,-2.2542807E4,-2.5010615E4,-1.9166012E4,-1.8484176E4,-1.2676925E4,-1.2271007E4,-6.2422524E3,-4.476918E3,1.5154835E3,-1.4056995E4,-5.9279346E3,-3.815688E3,5.43492E3,1.5283684E3,9.304668E3,1.3893327E4,2.1563014E4,1.3124658E4,2.8230738E4,3.0267E4,4.5654875E4,5.5895906E4,7.670767E4,7.9622445E4,1.119525E5,8.41903E3,1.8101715E4,2.4856479E4,3.229716E4,3.1046332E4,4.196177E4,4.811331E4,6.0113277E4,4.4644105E4,5.6017277E4,6.401607E4,7.967382E4,7.4127805E4,8.739004E4,9.5108836E4,1.1134552E5,6.5055363E4,7.63849E4,8.725587E4,1.0008572E5,9.759793E4,1.224799E5,1.20609625E5,1.52628E5,1.4123342E5,1.781788E5,1.5871811E5,2.0877798E5],"categories":[],"categories_nodes":[],"categories_segments":[],"categories_sizes":[],"default_left":[0,0,0,0,0,0,0,0,0,0,0,0,0,0,0,0,0,0,0,0,0,0,0,0,0,0,0,0,0,0,0,0,0,0,0,0,0,0,0,0,0,0,0,0,0,0,0,0,0,0,0,0,0,0,0,0,0,0,0,0,0,0,0,0,0,0,0,0,0,0,0,0,0,0,0,0,0,0,0,0,0,0,0,0,0,0,0,0,0,0,0,0,0,0,0,0,0,0,0,0,0,0,0,0,0,0,0,0,0,0,0,0,0,0,0,0,0,0,0,0,0,0,0],"id":0,"left_children":[1,3,5,7,9,11,13,15,17,19,21,23,25,27,29,31,33,35,37,39,41,43,45,47,49,51,53,55,57,59,61,63,65,67,69,71,73,75,77,79,81,83,85,87,89,91,93,95,97,99,101,103,105,107,109,111,113,115,117,-1,119,121,-1,-1,-1,-1,-1,-1,-1,-1,-1,-1,-1,-1,-1,-1,-1,-1,-1,-1,-1,-1,-1,-1,-1,-1,-1,-1,-1,-1,-1,-1,-1,-1,-1,-1,-1,-1,-1,-1,-1,-1,-1,-1,-1,-1,-1,-1,-1,-1,-1,-1,-1,-1,-1,-1,-1,-1,-1,-1,-1,-1,-1],"loss_changes":[1.5864023E16,4.5016884E15,3.9856695E15,1.2099079E15,1.464201E15,1.5305658E15,6.8012525E14,1.1460932E14,4.8453325E14,5.50073E14,4.3216914E14,5.340977E14,3.9341256E14,1.6151976E14,2.2947957E14,1.7463337E13,8.542757E12,1.068255E14,7.1984575E13,1.6142267E14,1.5450058E14,1.5826793E14,4.651141E13,1.4440955E14,1.0634124E14,1.2781474E14,5.6095763E13,1.9189645E13,2.022017E13,3.1272462E13,1.3448267E14,3.2427003E11,7.5862544E12,2.3082765E12,1.2160462E12,4.8269795E13,4.9540837E13,3.273869E13,1.4947549E13,6.2563346E13,5.4444486E13,5.0733026E13,2.1614691E13,4.6583215E13,4.5328347E13,7.229772E12,1.4402972E13,4.1394526E13,1.6318258E13,3.3457124E13,1.8570902E13,2.238255E13,2.0179099E13,5.5704384E12,7.632962E12,1.213798E12,1.4247212E11,3.0108392E12,1.2557276E13,0E0,5.4835995E12,1.2280654E13,0E0,0E0,0E0,0E0,0E0,0E0,0E0,0E0,0E0,0E0,0E0,0E0,0E0,0E0,0E0,0E0,0E0,0E0,0E0,0E0,0E0,0E0,0E0,0E0,0E0,0E0,0E0,0E0,0E0,0E0,0E0,0E0,0E0,0E0,0E0,0E0,0E0,0E0,0E0,0E0,0E0,0E0,0E0,0E0,0E0,0E0,0E0,0E0,0E0,0E0,0E0,0E0,0E0,0E0,0E0,0E0,0E0,0E0,0E0,0E0,0E0],"parents":[2147483647,0,0,1,1,2,2,3,3,4,4,5,5,6,6,7,7,8,8,9,9,10,10,11,11,12,12,13,13,14,14,15,15,16,16,17,17,18,18,19,19,20,20,21,21,22,22,23,23,24,24,25,25,26,26,27,27,28,28,29,29,30,30,31,31,32,32,33,33,34,34,35,35,36,36,37,37,38,38,39,39,40,40,41,41,42,42,43,43,44,44,45,45,46,46,47,47,48,48,49,49,50,50,51,51,52,52,53,53,54,54,55,55,56,56,57,57,58,58,60,60,61,61],"right_children":[2,4,6,8,10,12,14,16,18,20,22,24,26,28,30,32,34,36,38,40,42,44,46,48,50,52,54,56,58,60,62,64,66,68,70,72,74,76,78,80,82,84,86,88,90,92,94,96,98,100,102,104,106,108,110,112,114,116,118,-1,120,122,-1,-1,-1,-1,-1,-1,-1,-1,-1,-1,-1,-1,-1,-1,-1,-1,-1,-1,-1,-1,-1,-1,-1,-1,-1,-1,-1,-1,-1,-1,-1,-1,-1,-1,-1,-1,-1,-1,-1,-1,-1,-1,-1,-1,-1,-1,-1,-1,-1,-1,-1,-1,-1,-1,-1,-1,-1,-1,-1,-1,-1],"split_conditions":[7.272761E-1,-1.7931554E-1,2.8102462E0,-8.677197E-1,1.4217752E0,2.1529708E0,3.5222316E0,-9.2348444E-1,-9.843868E-2,-2.1130617E-1,4.063446E0,5.261953E-1,3.5222316E0,4.063446E0,2.7133849E0,-1.3815638E0,-5.7556134E-1,-6.9797873E-1,2.6986575E-1,5.584104E-1,5.712964E-1,-2.3506775E-1,1.1770331E0,1.3094348E0,1.4636549E0,8.2579577E-1,9.610992E-1,1.9242655E0,1.5589314E0,4.063446E0,3.1873338E0,-1.2875152E0,-1.0964249E0,-1.1261269E0,-1.0370209E0,-4.5783255E-1,-4.5486233E-1,-6.4643455E-1,-5.562323E-1,-7.073291E-1,-7.726734E-1,2.3125319E-1,2.1046181E-1,2.2432604E0,2.2432604E0,4.8637196E-2,2.5256648E0,-1.6320798E-1,7.8405306E-2,1.3569579E0,1.3569579E0,2.8390863E0,1.7568123E0,3.1873338E0,1.5119776E0,1.2262692E0,2.5539474E0,8.499878E-2,2.5256648E0,1.3061769E5,3.1873338E0,2.9495304E0,2.7537675E5,-4.753248E4,-4.1447434E4,-4.007587E4,-3.5730234E4,-3.4184508E4,-2.843905E4,-2.5993973E4,-2.2542807E4,-2.5010615E4,-1.9166012E4,-1.8484176E4,-1.2676925E4,-1.2271007E4,-6.2422524E3,-4.476918E3,1.5154835E3,-1.4056995E4,-5.9279346E3,-3.815688E3,5.43492E3,1.5283684E3,9.304668E3,1.3893327E4,2.1563014E4,1.3124658E4,2.8230738E4,3.0267E4,4.5654875E4,5.5895906E4,7.670767E4,7.9622445E4,1.119525E5,8.41903E3,1.8101715E4,2.4856479E4,3.229716E4,3.1046332E4,4.196177E4,4.811331E4,6.0113277E4,4.4644105E4,5.6017277E4,6.401607E4,7.967382E4,7.4127805E4,8.739004E4,9.5108836E4,1.1134552E5,6.5055363E4,7.63849E4,8.725587E4,1.0008572E5,9.759793E4,1.224799E5,1.20609625E5,1.52628E5,1.4123342E5,1.781788E5,1.5871811E5,2.0877798E5],"split_indices":[5,4,4,5,4,5,5,4,5,5,4,4,5,4,54,5,4,4,5,4,4,5,12,5,4,4,4,5,5,4,9,4,5,5,5,5,5,4,4,5,5,5,5,4,4,8,54,4,4,5,5,5,4,9,4,5,5,8,54,0,9,22,0,0,0,0,0,0,0,0,0,0,0,0,0,0,0,0,0,0,0,0,0,0,0,0,0,0,0,0,0,0,0,0,0,0,0,0,0,0,0,0,0,0,0,0,0,0,0,0,0,0,0,0,0,0,0,0,0,0,0,0,0],"split_type":[0,0,0,0,0,0,0,0,0,0,0,0,0,0,0,0,0,0,0,0,0,0,0,0,0,0,0,0,0,0,0,0,0,0,0,0,0,0,0,0,0,0,0,0,0,0,0,0,0,0,0,0,0,0,0,0,0,0,0,0,0,0,0,0,0,0,0,0,0,0,0,0,0,0,0,0,0,0,0,0,0,0,0,0,0,0,0,0,0,0,0,0,0,0,0,0,0,0,0,0,0,0,0,0,0,0,0,0,0,0,0,0,0,0,0,0,0,0,0,0,0,0,0],"sum_hessian":[1.02141E5,8.4793E4,1.7348E4,5.112E4,3.3673E4,1.6064E4,1.284E3,8.036E3,4.3084E4,2.8336E4,5.337E3,1.1942E4,4.122E3,8.13E2,4.71E2,5.737E3,2.299E3,2.9884E4,1.32E4,1.6134E4,1.2202E4,4.939E3,3.98E2,7.701E3,4.241E3,3.176E3,9.46E2,4.9E2,3.23E2,2.95E2,1.76E2,7.79E2,4.958E3,1E3,1.299E3,1.5101E4,1.4783E4,9.039E3,4.161E3,9.768E3,6.366E3,8.455E3,3.747E3,2.667E3,2.272E3,2.21E2,1.77E2,4.694E3,3.007E3,2.851E3,1.39E3,2.202E3,9.74E2,4.89E2,4.57E2,2.7E2,2.2E2,1.25E2,1.98E2,1.58E2,1.37E2,1.02E2,7.4E1,6.88E2,9.1E1,3.36E3,1.598E3,2.8E2,7.2E2,4.79E2,8.2E2,5.688E3,9.413E3,6.894E3,7.889E3,4.751E3,4.288E3,2.069E3,2.092E3,4.032E3,5.736E3,3.088E3,3.278E3,4.6E3,3.855E3,2.099E3,1.648E3,1.978E3,6.89E2,1.575E3,6.97E2,1.43E2,7.8E1,7.5E1,1.02E2,1.782E3,2.912E3,1.551E3,1.456E3,1.441E3,1.41E3,7.85E2,6.05E2,1.572E3,6.3E2,6.21E2,3.53E2,3.07E2,1.82E2,2.05E2,2.52E2,1.03E2,1.67E2,1.2E2,1E2,6.9E1,5.6E1,8.8E1,1.1E2,4.4E1,9.3E1,6E1,4.2E1],"tree_param":{"num_deleted":"0","num_feature":"56","num_nodes":"123","size_leaf_vector":"1"}},{"base_weights":[5.367952E2,-1.644237E5,8.523276E5,-3.4758162E5,1.03337055E5,7.326596E5,2.6302382E6,-6.655455E5,-2.7870894E5,1.8513084E4,5.651478E5,5.7080975E5,1.2823961E6,2.0554094E6,3.4774305E6,-7.5229844E5,-4.9327275E5,-3.4387675E5,-1.2476179E5,-1.027157E5,1.6725339E5,4.864624E5,1.5651135E6,4.1356806E5,8.5240225E5,1.0998942E6,1.7484391E6,1.6402809E6,2.4349448E6,2.929738E6,4.114941E6,-8.240494E5,-7.110009E5,-5.604292E5,-4.467155E5,-3.9657203E5,-2.8513184E5,-1.714992E5,-1.9512334E4,-1.7411003E5,2.6060389E4,8.480827E4,3.0793322E5,2.9590603E5,6.4287375E5,1.2732901E6,1.886177E6,3.060688E5,5.9934744E5,7.442827E5,1.1155662E6,9.7556575E5,1.4579365E6,1.4974631E6,2.003003E6,7.265261E4,9.2394484E4,2.200257E6,2.7057535E6,1.263442E5,3.1512452E6,3.4495248E6,5.138387E6,-4.4877527E4,-3.921873E4,-3.6997758E4,-3.2760238E4,-3.1931838E4,-2.63295E4,-2.5362943E4,-2.1353154E4,-2.2391316E4,-1.7120252E4,-1.7014586E4,-1.1687107E4,-1.1260765E4,-5.6320312E3,-3.315636E3,2.2899314E3,-1.3609952E4,-5.83948E3,-2.731806E3,6.1183843E3,6.1916174E2,8.598546E3,1.2623058E4,2.0676299E4,1.1274091E4,2.7065842E4,2.718928E4,4.133123E4,6.211953E4,1.9328236E5,7.8989555E4,1.0537431E5,1.0089626E4,1.959285E4,2.7063764E4,3.505556E4,3.24804E4,4.4192715E4,4.925608E4,6.1939363E4,4.3715582E4,5.3805562E4,6.6030484E4,8.021033E4,6.084787E4,7.764011E4,9.33875E4,1.11657766E5,9.83913E4,1.2212331E5,1.1957975E5,1.4661042E5,1.381921E5,1.8423492E5,1.5457411E5,1.9699286E5,2.2251092E5,2.8209328E5],"categories":[],"categories_nodes":[],"categories_segments":[],"categories_sizes":[],"default_left":[0,0,0,0,0,0,0,0,0,0,0,0,0,0,0,0,0,0,0,0,0,0,0,0,0,0,0,0,0,0,0,0,0,0,0,0,0,0,0,0,0,0,0,0,0,0,0,0,0,0,0,0,0,0,0,0,0,0,0,0,0,0,0,0,0,0,0,0,0,0,0,0,0,0,0,0,0,0,0,0,0,0,0,0,0,0,0,0,0,0,0,0,0,0,0,0,0,0,0,0,0,0,0,0,0,0,0,0,0,0,0,0,0,0,0,0,0,0,0,0,0],"id":1,"left_children":[1,3,5,7,9,11,13,15,17,19,21,23,25,27,29,31,33,35,37,39,41,43,45,47,49,51,53,55,57,59,61,63,65,67,69,71,73,75,77,79,81,83,85,87,89,91,93,95,97,99,101,103,105,107,109,-1,-1,111,113,-1,115,117,119,-1,-1,-1,-1,-1,-1,-1,-1,-1,-1,-1,-1,-1,-1,-1,-1,-1,-1,-1,-1,-1,-1,-1,-1,-1,-1,-1,-1,-1,-1,-1,-1,-1,-1,-1,-1,-1,-1,-1,-1,-1,-1,-1,-1,-1,-1,-1,-1,-1,-1,-1,-1,-1,-1,-1,-1,-1,-1],"loss_changes":[1.4425086E16,4.2179363E15,3.541788E15,1.11822E15,1.3684853E15,1.3878977E15,5.0419265E14,1.35510245E14,4.2111725E14,5.322201E14,4.257777E14,5.3359707E14,2.9993206E14,9.495126E13,1.35638825E14,1.7326435E13,9.279612E12,9.118806E13,6.1421287E13,1.4951546E14,1.536986E14,1.4964042E14,3.4607437E13,1.5439334E14,1.220874E14,1.12224274E14,6.0698357E13,9.092647E12,1.4765695E13,1.2650558E13,1.13711675E14,5.7172726E12,5.7253256E12,2.9559106E12,1.9309905E12,4.3003897E13,3.946377E13,2.7313442E13,1.1743354E13,5.879082E13,4.5090098E13,5.2759894E13,2.8579551E13,3.907548E13,4.9803367E13,1.2018929E13,9.282565E12,4.379944E13,1.63802E13,3.992642E13,1.8968052E13,1.8382057E13,1.1058467E13,5.9649043E12,1.1144366E13,0E0,0E0,5.3271016E12,3.445302E12,0E0,1.9782082E13,8.887093E12,5.3177064E11,0E0,0E0,0E0,0E0,0E0,0E0,0E0,0E0,0E0,0E0,0E0,0E0,0E0,0E0,0E0,0E0,0E0,0E0,0E0,0E0,0E0,0E0,0E0,0E0,0E0,0E0,0E0,0E0,0E0,0E0,0E0,0E0,0E0,0E0,0E0,0E0,0E0,0E0,0E0,0E0,0E0,0E0,0E0,0E0,0E0,0E0,0E0,0E0,0E0,0E0,0E0,0E0,0E0,0E0,0E0,0E0,0E0,0E0],"parents":[2147483647,0,0,1,1,2,2,3,3,4,4,5,5,6,6,7,7,8,8,9,9,10,10,11,11,12,12,13,13,14,14,15,15,16,16,17,17,18,18,19,19,20,20,21,21,22,22,23,23,24,24,25,25,26,26,27,27,28,28,29,29,30,30,31,31,32,32,33,33,34,34,35,35,36,36,37,37,38,38,39,39,40,40,41,41,42,42,43,43,44,44,45,45,46,46,47,47,48,48,49,49,50,50,51,51,52,52,53,53,54,54,57,57,58,58,60,60,61,61,62,62],"right_children":[2,4,6,8,10,12,14,16,18,20,22,24,26,28,30,32,34,36,38,40,42,44,46,48,50,52,54,56,58,60,62,64,66,68,70,72,74,76,78,80,82,84,86,88,90,92,94,96,98,100,102,104,106,108,110,-1,-1,112,114,-1,116,118,120,-1,-1,-1,-1,-1,-1,-1,-1,-1,-1,-1,-1,-1,-1,-1,-1,-1,-1,-1,-1,-1,-1,-1,-1,-1,-1,-1,-1,-1,-1,-1,-1,-1,-1,-1,-1,-1,-1,-1,-1,-1,-1,-1,-1,-1,-1,-1,-1,-1,-1,-1,-1,-1,-1,-1,-1,-1,-1],"split_conditions":[7.747993E-1,-2.0508762E-1,3.0711887E0,-8.11286E-1,1.4217752E0,2.3400931E0,3.5222316E0,-9.2348444E-1,-7.7647306E-2,-2.1724656E-1,4.063446E0,5.584104E-1,3.5222316E0,4.063446E0,2.7133849E0,-1.2875152E0,-6.17441E-1,-6.883142E-1,2.9956773E-1,6.035115E-1,4.42436E-1,-3.8357762E-1,1.1770331E0,1.4520042E0,1.7084897E0,1.0867381E0,9.610992E-1,1.9985205E0,2.1529708E0,3.1873338E0,3.1873338E0,-1.3340406E0,-1.0696931E0,-1.0548421E0,-1.0548421E0,-3.7169683E-1,-4.2516038E-1,-6.4643455E-1,-5.079096E-1,-7.518821E-1,-7.162397E-1,2.5798497E-1,3.2629952E-1,2.3495703E0,2.1433935E0,1.4819199E0,2.5256648E0,-7.300569E-2,1.9242655E0,1.5589314E0,1.3569579E0,2.7813897E-1,1.8727866E0,3.330416E-2,2.0531912E0,7.265261E4,9.2394484E4,4.8637196E-2,2.5256648E0,1.263442E5,1.8239601E0,2.9495304E0,2.5087123E0,-4.4877527E4,-3.921873E4,-3.6997758E4,-3.2760238E4,-3.1931838E4,-2.63295E4,-2.5362943E4,-2.1353154E4,-2.2391316E4,-1.7120252E4,-1.7014586E4,-1.1687107E4,-1.1260765E4,-5.6320312E3,-3.315636E3,2.2899314E3,-1.3609952E4,-5.83948E3,-2.731806E3,6.1183843E3,6.1916174E2,8.598546E3,1.2623058E4,2.0676299E4,1.1274091E4,2.7065842E4,2.718928E4,4.133123E4,6.211953E4,1.9328236E5,7.8989555E4,1.0537431E5,1.0089626E4,1.959285E4,2.7063764E4,3.505556E4,3.24804E4,4.4192715E4,4.925608E4,6.1939363E4,4.3715582E4,5.3805562E4,6.6030484E4,8.021033E4,6.084787E4,7.764011E4,9.33875E4,1.11657766E5,9.83913E4,1.2212331E5,1.1957975E5,1.4661042E5,1.381921E5,1.8423492E5,1.5457411E5,1.9699286E5,2.2251092E5,2.8209328E5],"split_indices":[5,4,4,5,4,5,5,4,5,5,4,4,5,4,54,4,4,4,5,4,4,5,12,5,4,4,4,5,5,9,9,5,5,5,5,5,5,4,4,5,5,5,5,4,4,0,54,4,5,5,5,4,4,4,4,0,0,8,54,0,54,22,42,0,0,0,0,0,0,0,0,0,0,0,0,0,0,0,0,0,0,0,0,0,0,0,0,0,0,0,0,0,0,0,0,0,0,0,0,0,0,0,0,0,0,0,0,0,0,0,0,0,0,0,0,0,0,0,0,0,0],"split_type":[0,0,0,0,0,0,0,0,0,0,0,0,0,0,0,0,0,0,0,0,0,0,0,0,0,0,0,0,0,0,0,0,0,0,0,0,0,0,0,0,0,0,0,0,0,0,0,0,0,0,0,0,0,0,0,0,0,0,0,0,0,0,0,0,0,0,0,0,0,0,0,0,0,0,0,0,0,0,0,0,0,0,0,0,0,0,0,0,0,0,0,0,0,0,0,0,0,0,0,0,0,0,0,0,0,0,0,0,0,0,0,0,0,0,0,0,0,0,0,0,0],"sum_hessian":[1.02659E5,8.6004E4,1.6655E4,5.107E4,3.4934E4,1.5606E4,1.049E3,9.091E3,4.1979E4,2.9514E4,5.42E3,1.2058E4,3.548E3,6.27E2,4.22E2,6.044E3,3.047E3,2.9493E4,1.2486E4,1.6261E4,1.3253E4,5.026E3,3.94E2,7.739E3,4.319E3,2.552E3,9.96E2,3.02E2,3.25E2,2.3E2,1.92E2,2.201E3,3.843E3,1.243E3,1.804E3,1.5544E4,1.3949E4,8.646E3,3.84E3,1.0461E4,5.8E3,8.357E3,4.896E3,2.267E3,2.759E3,2.09E2,1.85E2,4.904E3,2.835E3,3.064E3,1.255E3,1.897E3,6.55E2,5.05E2,4.91E2,1.63E2,1.39E2,1.79E2,1.46E2,8.6E1,1.44E2,1.19E2,7.3E1,7.64E2,1.437E3,2.522E3,1.321E3,3.7E2,8.73E2,4.36E2,1.368E3,7.983E3,7.561E3,6.725E3,7.224E3,4.519E3,4.127E3,2.237E3,1.603E3,3.857E3,6.604E3,3.156E3,2.644E3,4.565E3,3.792E3,3.212E3,1.684E3,1.763E3,5.04E2,1.795E3,9.64E2,2.08E2,1E0,8.1E1,1.04E2,2.215E3,2.689E3,1.809E3,1.026E3,1.829E3,1.235E3,6.14E2,6.41E2,9.5E2,9.47E2,3.43E2,3.12E2,8.7E1,4.18E2,3.15E2,1.76E2,9.6E1,8.3E1,6.6E1,8E1,8.7E1,5.7E1,7.3E1,4.6E1,3.5E1,3.8E1],"tree_param":{"num_deleted":"0","num_feature":"56","num_nodes":"121","size_leaf_vector":"1"}},{"base_weights":[3.3634357E1,-1.4327628E5,8.847873E5,-3.278774E5,1.0829976E5,7.5953394E5,2.5112315E6,-6.295554E5,-2.6164966E5,2.8801486E4,5.498741E5,6.2880175E5,1.3477035E6,1.9576984E6,3.3037415E6,-7.1370325E5,-4.664586E5,-3.223002E5,-9.787595E4,-8.238339E4,1.9803447E5,4.7966972E5,1.5025241E6,5.2472E5,9.812711E5,1.1221808E6,1.6531916E6,1.5675395E6,2.3465338E6,2.7644615E6,3.9551278E6,-7.6484075E5,-6.587597E5,-5.30643E5,-4.2565388E5,-3.9344138E5,-2.8296266E5,-1.4533631E5,1.12809795E4,-1.6516366E5,1.8243283E4,1.224191E5,3.359278E5,3.3571694E5,7.0502156E5,1.2193814E6,1.8580148E6,4.1449912E5,7.13454E5,8.7218706E5,1.1713792E6,9.9137844E5,1.3938128E6,1.4042556E6,1.8749436E6,7.0821086E4,8.8920016E4,2.0138389E6,2.5258525E6,1.2079962E5,3.019291E6,3.3439525E6,4.9288925E6,-4.2238086E4,-3.6847008E4,-3.4450496E4,-3.0881484E4,-3.044228E4,-2.5007535E4,-2.4800377E4,-2.0477574E4,-2.2715768E4,-1.759688E4,-1.6384924E4,-1.1416786E4,-9.43637E3,-4.1655884E3,-2.466235E3,2.6438174E3,-1.2869658E4,-4.9218E3,-3.5998071E3,5.6473154E3,2.5687712E3,1.0206605E4,1.3726614E4,2.1332467E4,1.3390069E4,2.6790984E4,3.1317951E4,4.608181E4,4.6524902E4,7.634577E4,7.240597E4,1.0638815E5,1.5871888E4,2.5872674E4,3.0767594E4,3.954018E4,3.8672094E4,5.106404E4,5.3117832E4,6.613395E4,4.527576E4,5.3774887E4,6.5058574E4,7.6980086E4,6.4405125E4,7.881512E4,8.936316E4,1.06392164E5,7.953005E4,1.05078664E5,1.1188596E5,1.3910028E5,1.27670766E5,1.6261681E5,1.2279029E5,1.8028777E5,2.123343E5,2.782552E5],"categories":[],"categories_nodes":[],"categories_segments":[],"categories_sizes":[],"default_left":[0,0,0,0,0,0,0,0,0,0,0,0,0,0,0,0,0,0,0,0,0,0,0,0,0,0,0,0,0,0,0,0,0,0,0,0,0,0,0,0,0,0,0,0,0,0,0,0,0,0,0,0,0,0,0,0,0,0,0,0,0,0,0,0,0,0,0,0,0,0,0,0,0,0,0,0,0,0,0,0,0,0,0,0,0,0,0,0,0,0,0,0,0,0,0,0,0,0,0,0,0,0,0,0,0,0,0,0,0,0,0,0,0,0,0,0,0,0,0,0,0],"id":2,"left_children":[1,3,5,7,9,11,13,15,17,19,21,23,25,27,29,31,33,35,37,39,41,43,45,47,49,51,53,55,57,59,61,63,65,67,69,71,73,75,77,79,81,83,85,87,89,91,93,95,97,99,101,103,105,107,109,-1,-1,111,113,-1,115,117,119,-1,-1,-1,-1,-1,-1,-1,-1,-1,-1,-1,-1,-1,-1,-1,-1,-1,-1,-1,-1,-1,-1,-1,-1,-1,-1,-1,-1,-1,-1,-1,-1,-1,-1,-1,-1,-1,-1,-1,-1,-1,-1,-1,-1,-1,-1,-1,-1,-1,-1,-1,-1,-1,-1,-1,-1,-1,-1],"loss_changes":[1.2980659E16,4.0917396E15,2.9053478E15,1.01513055E15,1.3089922E15,1.01813435E15,4.409863E14,1.2520286E14,4.138848E14,5.946254E14,3.7976087E14,3.9730407E14,1.6411177E14,8.780121E13,1.3590082E14,1.6444088E13,7.935019E12,8.498908E13,5.835105E13,1.5887092E14,1.30607405E14,1.7169548E14,3.69896E13,1.7390376E14,5.0221053E13,4.796955E13,5.372843E13,7.167965E12,1.2810948E13,1.3307017E13,9.4809256E13,6.330245E12,3.201227E12,2.5736585E12,1.960619E12,2.718929E13,4.7786746E13,2.1111073E13,8.609014E12,6.4372836E13,7.358018E13,4.697675E13,2.4596472E13,4.3834067E13,3.460925E13,1.812436E13,1.5825948E13,5.2688243E13,2.2930428E13,2.2382954E13,1.3407412E13,5.8227677E12,4.0609587E12,7.661685E12,8.104469E12,0E0,0E0,7.418214E11,7.8716013E12,0E0,5.8096144E12,1.8582444E13,6.7486016E12,0E0,0E0,0E0,0E0,0E0,0E0,0E0,0E0,0E0,0E0,0E0,0E0,0E0,0E0,0E0,0E0,0E0,0E0,0E0,0E0,0E0,0E0,0E0,0E0,0E0,0E0,0E0,0E0,0E0,0E0,0E0,0E0,0E0,0E0,0E0,0E0,0E0,0E0,0E0,0E0,0E0,0E0,0E0,0E0,0E0,0E0,0E0,0E0,0E0,0E0,0E0,0E0,0E0,0E0,0E0,0E0,0E0,0E0],"parents":[2147483647,0,0,1,1,2,2,3,3,4,4,5,5,6,6,7,7,8,8,9,9,10,10,11,11,12,12,13,13,14,14,15,15,16,16,17,17,18,18,19,19,20,20,21,21,22,22,23,23,24,24,25,25,26,26,27,27,28,28,29,29,30,30,31,31,32,32,33,33,34,34,35,35,36,36,37,37,38,38,39,39,40,40,41,41,42,42,43,43,44,44,45,45,46,46,47,47,48,48,49,49,50,50,51,51,52,52,53,53,54,54,57,57,58,58,60,60,61,61,62,62],"right_children":[2,4,6,8,10,12,14,16,18,20,22,24,26,28,30,32,34,36,38,40,42,44,46,48,50,52,54,56,58,60,62,64,66,68,70,72,74,76,78,80,82,84,86,88,90,92,94,96,98,100,102,104,106,108,110,-1,-1,112,114,-1,116,118,120,-1,-1,-1,-1,-1,-1,-1,-1,-1,-1,-1,-1,-1,-1,-1,-1,-1,-1,-1,-1,-1,-1,-1,-1,-1,-1,-1,-1,-1,-1,-1,-1,-1,-1,-1,-1,-1,-1,-1,-1,-1,-1,-1,-1,-1,-1,-1,-1,-1,-1,-1,-1,-1,-1,-1,-1,-1,-1],"split_conditions":[9.411303E-1,-2.2441669E-1,3.0711887E0,-7.994052E-1,1.4217752E0,2.684636E0,3.5222316E0,-9.2348444E-1,-3.3094347E-2,-7.7647306E-2,4.063446E0,9.933143E-1,8.96669E-1,4.063446E0,2.7133849E0,-1.1677096E0,-6.335485E-1,-8.0428857E-1,3.6788225E-1,4.1988543E-1,4.42436E-1,-4.794533E-2,8.499878E-2,1.7222922E0,1.9146663E0,3.5222316E0,3.5222316E0,2.1529708E0,1.6717988E0,4.063446E0,3.1873338E0,-1.3815638E0,-1.1779838E0,-1.0548421E0,-1.0845442E0,-4.2516038E-1,-3.4199485E-1,-5.948904E-1,-6.17441E-1,-6.2119335E-1,-6.6574633E-1,3.9758423E-1,8.96669E-1,2.2432604E0,2.3495703E0,-8.4395814E-1,2.7133849E0,1.0417739E-1,1.8149364E-1,1.7222922E0,1.7222922E0,2.6525292E-1,3.1873338E0,1.805135E0,2.2432604E0,7.0821086E4,8.8920016E4,1.6574878E0,2.7133849E0,1.2079962E5,3.1873338E0,4.063446E0,2.7250204E0,-4.2238086E4,-3.6847008E4,-3.4450496E4,-3.0881484E4,-3.044228E4,-2.5007535E4,-2.4800377E4,-2.0477574E4,-2.2715768E4,-1.759688E4,-1.6384924E4,-1.1416786E4,-9.43637E3,-4.1655884E3,-2.466235E3,2.6438174E3,-1.2869658E4,-4.9218E3,-3.5998071E3,5.6473154E3,2.5687712E3,1.0206605E4,1.3726614E4,2.1332467E4,1.3390069E4,2.6790984E4,3.1317951E4,4.608181E4,4.6524902E4,7.634577E4,7.240597E4,1.0638815E5,1.5871888E4,2.5872674E4,3.0767594E4,3.954018E4,3.8672094E4,5.106404E4,5.3117832E4,6.613395E4,4.527576E4,5.3774887E4,6.5058574E4,7.6980086E4,6.4405125E4,7.881512E4,8.936316E4,1.06392164E5,7.953005E4,1.05078664E5,1.1188596E5,1.3910028E5,1.27670766E5,1.6261681E5,1.2279029E5,1.8028777E5,2.123343E5,2.782552E5],"split_indices":[5,4,4,5,4,5,5,4,5,5,4,4,4,4,54,5,4,4,5,4,4,5,8,5,4,5,5,5,5,4,9,5,4,5,5,5,5,4,4,5,5,5,4,4,4,5,54,4,4,5,5,4,9,4,4,0,0,54,54,0,9,4,53,0,0,0,0,0,0,0,0,0,0,0,0,0,0,0,0,0,0,0,0,0,0,0,0,0,0,0,0,0,0,0,0,0,0,0,0,0,0,0,0,0,0,0,0,0,0,0,0,0,0,0,0,0,0,0,0,0,0],"split_type":[0,0,0,0,0,0,0,0,0,0,0,0,0,0,0,0,0,0,0,0,0,0,0,0,0,0,0,0,0,0,0,0,0,0,0,0,0,0,0,0,0,0,0,0,0,0,0,0,0,0,0,0,0,0,0,0,0,0,0,0,0,0,0,0,0,0,0,0,0,0,0,0,0,0,0,0,0,0,0,0,0,0,0,0,0,0,0,0,0,0,0,0,0,0,0,0,0,0,0,0,0,0,0,0,0,0,0,0,0,0,0,0,0,0,0,0,0,0,0,0,0],"sum_hessian":[1.02374E5,8.8104E4,1.427E4,5.0816E4,3.7288E4,1.3251E4,1.019E3,9.146E3,4.167E4,3.16E4,5.688E3,1.0843E4,2.408E3,6.02E2,4.17E2,6.031E3,3.115E3,3.0408E4,1.1262E4,1.9071E4,1.2529E4,5.299E3,3.89E2,8.373E3,2.47E3,1.388E3,1.02E3,3.03E2,2.99E2,2.31E2,1.86E2,3.117E3,2.914E3,1.206E3,1.909E3,1.0824E4,1.9584E4,7.849E3,3.413E3,1.0463E4,8.608E3,8.093E3,4.436E3,3.235E3,2.064E3,2.19E2,1.7E2,5.288E3,3.085E3,1.573E3,8.97E2,9.4E2,4.48E2,4.84E2,5.36E2,1.81E2,1.22E2,1.09E2,1.9E2,1.02E2,1.29E2,1.17E2,6.9E1,7.99E2,2.318E3,1.67E3,1.244E3,3.33E2,8.73E2,3.5E2,1.559E3,4.384E3,6.44E3,1.0764E4,8.82E3,4.617E3,3.232E3,1.389E3,2.024E3,4.391E3,6.072E3,4.408E3,4.2E3,4.33E3,3.763E3,2.648E3,1.788E3,2.417E3,8.18E2,1.517E3,5.47E2,1.15E2,1.04E2,7E1,1E2,2.724E3,2.564E3,1.364E3,1.721E3,9.5E2,6.23E2,5.26E2,3.71E2,4.71E2,4.69E2,2.8E2,1.68E2,2.94E2,1.9E2,4.04E2,1.32E2,2.2E1,8.7E1,9.4E1,9.6E1,4.7E1,8.2E1,2.9E1,8.8E1,3.7E1,3.2E1],"tree_param":{"num_deleted":"0","num_feature":"56","num_nodes":"121","size_leaf_vector":"1"}},{"base_weights":[4.4865085E2,-1.353027E5,8.444829E5,-3.1629825E5,9.7678555E4,7.2295144E5,2.3877268E6,-6.125521E5,-2.5544964E5,3.7011473E4,6.2922106E5,5.9634456E5,1.2845228E6,1.8629268E6,3.1176372E6,-6.833725E5,-4.5970797E5,-3.2274244E5,-1.27765336E5,-7.565888E4,1.8743648E5,5.347537E5,1.4231389E6,4.519323E5,8.304933E5,1.0665312E6,1.5758345E6,1.494625E6,2.207398E6,2.606688E6,3.7829712E6,-7.931596E5,-6.615193E5,-5.2382334E5,-4.180991E5,-3.60055E5,-2.5886895E5,-1.8252884E5,-3.3387992E4,-1.5006169E5,6.4560293E4,1.1913114E5,3.754754E5,3.734557E5,7.048577E5,9.8962994E5,1.6687675E6,3.331184E5,5.984867E5,7.277421E5,1.0567005E6,9.4295056E5,1.3254592E6,1.3359281E6,1.7877584E6,6.7879336E4,8.532073E4,1.8485581E6,2.377021E6,1.14644914E5,2.8670448E6,3.1094712E6,4.687238E6,-4.072834E4,-3.613623E4,-3.4364293E4,-3.0594469E4,-2.9037219E4,-2.4277926E4,-2.3754604E4,-2.0012957E4,-2.1049854E4,-1.6307617E4,-1.5684671E4,-1.09222705E4,-1.1813739E4,-6.9107188E3,-3.8700994E3,1.8161409E3,-1.171068E4,-4.619093E3,-2.204393E3,7.095289E3,2.7237585E3,1.033103E4,1.559344E4,2.3434998E4,1.5782955E4,2.9006951E4,3.1491678E4,4.4406152E4,6.112177E4,3.9814605E4,6.9077555E4,1.0256774E5,1.0412034E4,1.9349406E4,2.636325E4,3.515933E4,3.175199E4,4.3301324E4,4.7981957E4,6.0934875E4,4.366761E4,5.1765195E4,5.601803E4,6.976018E4,6.094897E4,7.5053016E4,8.127265E4,9.655979E4,6.7565E4,9.523727E4,1.0308205E5,1.2942458E5,1.2041235E5,1.5282486E5,1.1247724E5,1.6629044E5,2.0724642E5,2.679124E5],"categories":[],"categories_nodes":[],"categories_segments":[],"categories_sizes":[],"default_left":[0,0,0,0,0,0,0,0,0,0,0,0,0,0,0,0,0,0,0,0,0,0,0,0,0,0,0,0,0,0,0,0,0,0,0,0,0,0,0,0,0,0,0,0,0,0,0,0,0,0,0,0,0,0,0,0,0,0,0,0,0,0,0,0,0,0,0,0,0,0,0,0,0,0,0,0,0,0,0,0,0,0,0,0,0,0,0,0,0,0,0,0,0,0,0,0,0,0,0,0,0,0,0,0,0,0,0,0,0,0,0,0,0,0,0,0,0,0,0,0,0],"id":3,"left_children":[1,3,5,7,9,11,13,15,17,19,21,23,25,27,29,31,33,35,37,39,41,43,45,47,49,51,53,55,57,59,61,63,65,67,69,71,73,75,77,79,81,83,85,87,89,91,93,95,97,99,101,103,105,107,109,-1,-1,111,113,-1,115,117,119,-1,-1,-1,-1,-1,-1,-1,-1,-1,-1,-1,-1,-1,-1,-1,-1,-1,-1,-1,-1,-1,-1,-1,-1,-1,-1,-1,-1,-1,-1,-1,-1,-1,-1,-1,-1,-1,-1,-1,-1,-1,-1,-1,-1,-1,-1,-1,-1,-1,-1,-1,-1,-1,-1,-1,-1,-1,-1],"loss_changes":[1.1718202E16,3.715166E15,2.655895E15,8.936587E14,1.2421361E15,9.332583E14,3.9027294E14,9.113062E13,3.534087E14,5.860065E14,2.9518626E14,3.6217768E14,1.5174388E14,7.3329856E13,1.36658075E14,1.332111E13,6.925299E12,6.4107756E13,7.338051E13,2.0625372E14,1.9013736E14,9.65361E13,4.296457E13,1.1531652E14,9.427185E13,4.3068053E13,5.008066E13,6.245285E12,1.4474979E13,1.3605383E13,9.809437E13,8.4825604E11,5.7419686E12,2.0050115E12,1.4661274E12,3.4990562E13,2.195386E13,2.1367127E13,1.6003743E13,6.267092E13,5.7603455E13,6.1437645E13,2.3246443E13,2.147425E13,2.3034514E13,5.958143E12,2.639546E13,2.458107E13,2.1768773E13,3.553629E13,1.8877992E13,5.14423E12,4.8023103E12,7.594509E12,9.548786E12,0E0,0E0,3.3178622E11,8.4691386E12,0E0,4.0257936E12,1.2796184E13,5.8104197E12,0E0,0E0,0E0,0E0,0E0,0E0,0E0,0E0,0E0,0E0,0E0,0E0,0E0,0E0,0E0,0E0,0E0,0E0,0E0,0E0,0E0,0E0,0E0,0E0,0E0,0E0,0E0,0E0,0E0,0E0,0E0,0E0,0E0,0E0,0E0,0E0,0E0,0E0,0E0,0E0,0E0,0E0,0E0,0E0,0E0,0E0,0E0,0E0,0E0,0E0,0E0,0E0,0E0,0E0,0E0,0E0,0E0,0E0],"parents":[2147483647,0,0,1,1,2,2,3,3,4,4,5,5,6,6,7,7,8,8,9,9,10,10,11,11,12,12,13,13,14,14,15,15,16,16,17,17,18,18,19,19,20,20,21,21,22,22,23,23,24,24,25,25,26,26,27,27,28,28,29,29,30,30,31,31,32,32,33,33,34,34,35,35,36,36,37,37,38,38,39,39,40,40,41,41,42,42,43,43,44,44,45,45,46,46,47,47,48,48,49,49,50,50,51,51,52,52,53,53,54,54,57,57,58,58,60,60,61,61,62,62],"right_children":[2,4,6,8,10,12,14,16,18,20,22,24,26,28,30,32,34,36,38,40,42,44,46,48,50,52,54,56,58,60,62,64,66,68,70,72,74,76,78,80,82,84,86,88,90,92,94,96,98,100,102,104,106,108,110,-1,-1,112,114,-1,116,118,120,-1,-1,-1,-1,-1,-1,-1,-1,-1,-1,-1,-1,-1,-1,-1,-1,-1,-1,-1,-1,-1,-1,-1,-1,-1,-1,-1,-1,-1,-1,-1,-1,-1,-1,-1,-1,-1,-1,-1,-1,-1,-1,-1,-1,-1,-1,-1,-1,-1,-1,-1,-1,-1,-1,-1,-1,-1,-1],"split_conditions":[9.411303E-1,-2.566318E-1,3.0711887E0,-8.320774E-1,1.7568123E0,2.684636E0,3.5222316E0,-9.589211E-1,-1.3111085E-1,-1.3705124E-1,4.063446E0,5.584104E-1,8.96669E-1,4.063446E0,2.7133849E0,-1.3340406E0,-6.689851E-1,-6.10998E-1,2.1046181E-1,6.614987E-1,6.743848E-1,-1.7566381E-1,3.856121E-1,1.5589314E0,1.5892937E0,3.5222316E0,3.5222316E0,2.2420766E0,1.5589314E0,4.063446E0,3.1873338E0,-1.3358378E0,-1.0964249E0,-1.02217E0,-1.0696931E0,-4.756537E-1,-4.934749E-1,-7.0442176E-1,4.9560073E-1,-6.746569E-1,-8.320774E-1,3.9758423E-1,3.6788225E-1,2.6040695E0,2.4526587E0,-2.3688402E-2,2.7133849E0,-1.5032195E-1,2.0698051E0,1.7876365E0,1.7876365E0,3.490122E-1,1.5894307E-1,1.805135E0,1.5892937E0,6.7879336E4,8.532073E4,1.121925E0,2.5256648E0,1.14644914E5,3.1873338E0,4.063446E0,2.7250204E0,-4.072834E4,-3.613623E4,-3.4364293E4,-3.0594469E4,-2.9037219E4,-2.4277926E4,-2.3754604E4,-2.0012957E4,-2.1049854E4,-1.6307617E4,-1.5684671E4,-1.09222705E4,-1.1813739E4,-6.9107188E3,-3.8700994E3,1.8161409E3,-1.171068E4,-4.619093E3,-2.204393E3,7.095289E3,2.7237585E3,1.033103E4,1.559344E4,2.3434998E4,1.5782955E4,2.9006951E4,3.1491678E4,4.4406152E4,6.112177E4,3.9814605E4,6.9077555E4,1.0256774E5,1.0412034E4,1.9349406E4,2.636325E4,3.515933E4,3.175199E4,4.3301324E4,4.7981957E4,6.0934875E4,4.366761E4,5.1765195E4,5.601803E4,6.976018E4,6.094897E4,7.5053016E4,8.127265E4,9.655979E4,6.7565E4,9.523727E4,1.0308205E5,1.2942458E5,1.2041235E5,1.5282486E5,1.1247724E5,1.6629044E5,2.0724642E5,2.679124E5],"split_indices":[5,4,4,5,4,5,5,4,5,5,4,4,4,4,54,5,4,4,5,4,4,5,9,5,4,5,5,5,5,4,9,4,5,5,5,5,5,4,5,5,5,5,5,4,4,2,54,4,5,5,5,4,4,4,4,0,0,54,54,0,9,4,53,0,0,0,0,0,0,0,0,0,0,0,0,0,0,0,0,0,0,0,0,0,0,0,0,0,0,0,0,0,0,0,0,0,0,0,0,0,0,0,0,0,0,0,0,0,0,0,0,0,0,0,0,0,0,0,0,0,0],"split_type":[0,0,0,0,0,0,0,0,0,0,0,0,0,0,0,0,0,0,0,0,0,0,0,0,0,0,0,0,0,0,0,0,0,0,0,0,0,0,0,0,0,0,0,0,0,0,0,0,0,0,0,0,0,0,0,0,0,0,0,0,0,0,0,0,0,0,0,0,0,0,0,0,0,0,0,0,0,0,0,0,0,0,0,0,0,0,0,0,0,0,0,0,0,0,0,0,0,0,0,0,0,0,0,0,0,0,0,0,0,0,0,0,0,0,0,0,0,0,0,0,0],"sum_hessian":[1.0227E5,8.8101E4,1.4169E4,4.9582E4,3.8519E4,1.3136E4,1.033E3,8.447E3,4.1135E4,3.4574E4,3.945E3,1.0721E4,2.415E3,6.03E2,4.3E2,5.77E3,2.677E3,2.6937E4,1.4198E4,1.9768E4,1.4806E4,3.527E3,4.18E2,6.633E3,4.088E3,1.384E3,1.031E3,2.94E2,3.09E2,2.46E2,1.84E2,9.52E2,4.818E3,1.049E3,1.628E3,1.7001E4,9.936E3,8.984E3,5.214E3,1.2915E4,6.853E3,1.0862E4,3.944E3,1.812E3,1.715E3,1.53E2,2.65E2,3.665E3,2.968E3,2.814E3,1.274E3,9.4E2,4.44E2,4.87E2,5.44E2,1.83E2,1.11E2,1.03E2,2.06E2,1.16E2,1.3E2,1.08E2,7.6E1,7.22E2,2.3E2,3.163E3,1.655E3,4.16E2,6.33E2,3.82E2,1.246E3,6.073E3,1.0928E4,4.214E3,5.722E3,4.058E3,4.926E3,3.196E3,2.018E3,5.251E3,7.664E3,2.85E3,4.003E3,6.247E3,4.615E3,2.347E3,1.597E3,1.418E3,3.94E2,1.22E3,4.95E2,6.7E1,8.6E1,1.54E2,1.11E2,1.106E3,2.559E3,1.77E3,1.198E3,1.688E3,1.126E3,8.01E2,4.73E2,5.42E2,3.98E2,1.17E2,3.27E2,2.9E2,1.97E2,2.61E2,2.83E2,1.3E1,9E1,8.7E1,1.19E2,4.2E1,8.8E1,2.4E1,8.4E1,4.6E1,3E1],"tree_param":{"num_deleted":"0","num_feature":"56","num_nodes":"121","size_leaf_vector":"1"}},{"base_weights":[5.397965E2,-1.4833786E5,6.923555E5,-2.779869E5,1.2533129E5,5.7375194E5,1.9492625E6,-5.7656725E5,-2.2590956E5,5.739925E4,5.687119E5,4.2388306E5,9.9290356E5,1.513132E6,2.6772878E6,-6.450824E5,-4.0363628E5,-2.9179916E5,-9.925153E4,-6.273551E4,1.7489208E5,4.7880575E5,1.3018414E6,2.961472E5,6.4404544E5,8.699678E5,1.4724805E6,1.265587E6,2.0300682E6,2.0695426E6,3.1775718E6,-7.098866E5,-6.085341E5,-4.6959816E5,-3.7109784E5,-3.3522144E5,-2.1221953E5,-1.5813897E5,-1.1669311E4,-1.2687015E5,5.409748E4,1.08331586E5,3.2294944E5,2.924709E5,5.8896506E5,1.487255E6,8.971375E5,2.1281361E5,4.3786222E5,5.487028E5,8.082737E5,7.651384E5,1.1015906E6,1.2768344E6,1.6609415E6,1.0993541E6,1.4325206E6,1.7799926E6,2.262767E6,8.5591086E4,1.0643546E5,2.6423002E6,3.576241E6,-3.87652E4,-3.39045E4,-3.148212E4,-2.8102717E4,-2.6891404E4,-2.2443244E4,-2.0832562E4,-1.7373332E4,-1.9908969E4,-1.5127713E4,-1.3528408E4,-8.459429E3,-1.0017425E4,-4.412843E3,-3.2649646E3,2.3854E3,-1.1382411E4,-4.324696E3,-2.0478661E3,6.1809634E3,2.259239E3,9.091358E3,1.3379671E4,2.0379328E4,1.1591336E4,2.6703885E4,2.6660879E4,4.115694E4,6.188154E4,8.5672E4,3.9169207E4,6.3364812E4,4.7173457E3,1.3118281E4,1.6065687E4,2.352261E4,2.2823006E4,3.170012E4,3.620812E4,4.5174465E4,3.388701E4,4.2949906E4,5.068629E4,6.116023E4,5.9107613E4,7.104074E4,7.7806086E4,9.0337086E4,5.060795E4,5.8739312E4,6.759038E4,7.826952E4,8.121567E4,1.03585586E5,9.6909625E4,1.2378798E5,1.1399323E5,1.412186E5,1.5006848E5,2.1795733E5],"categories":[],"categories_nodes":[],"categories_segments":[],"categories_sizes":[],"default_left":[0,0,0,0,0,0,0,0,0,0,0,0,0,0,0,0,0,0,0,0,0,0,0,0,0,0,0,0,0,0,0,0,0,0,0,0,0,0,0,0,0,0,0,0,0,0,0,0,0,0,0,0,0,0,0,0,0,0,0,0,0,0,0,0,0,0,0,0,0,0,0,0,0,0,0,0,0,0,0,0,0,0,0,0,0,0,0,0,0,0,0,0,0,0,0,0,0,0,0,0,0,0,0,0,0,0,0,0,0,0,0,0,0,0,0,0,0,0,0,0,0,0,0],"id":4,"left_children":[1,3,5,7,9,11,13,15,17,19,21,23,25,27,29,31,33,35,37,39,41,43,45,47,49,51,53,55,57,59,61,63,65,67,69,71,73,75,77,79,81,83,85,87,89,91,93,95,97,99,101,103,105,107,109,111,113,115,117,-1,-1,119,121,-1,-1,-1,-1,-1,-1,-1,-1,-1,-1,-1,-1,-1,-1,-1,-1,-1,-1,-1,-1,-1,-1,-1,-1,-1,-1,-1,-1,-1,-1,-1,-1,-1,-1,-1,-1,-1,-1,-1,-1,-1,-1,-1,-1,-1,-1,-1,-1,-1,-1,-1,-1,-1,-1,-1,-1,-1,-1,-1,-1],"loss_changes":[1.0559036E16,2.993349E15,2.705314E15,8.8998755E14,8.168149E14,1.0417889E15,4.9285823E14,1.00462775E14,4.067699E14,3.3196695E14,2.3686074E14,3.435523E14,2.5630271E14,1.2296438E14,1.7129E14,1.398495E13,5.0090056E12,1.1072667E14,8.603544E13,8.714344E13,1.1713825E14,6.57385E13,2.8155524E13,9.127785E13,6.981389E13,8.365469E13,3.0694923E13,1.6906602E13,1.4361028E13,2.0070919E12,5.8623888E13,4.0275385E12,3.4714073E12,8.818105E11,1.6012846E12,4.2540846E13,2.8381446E13,2.9405494E13,2.1364094E13,3.053065E13,2.7244802E13,3.806663E13,1.7165139E13,1.7385382E13,2.589221E13,1.3010999E13,4.312684E12,2.8586916E13,1.0727218E13,2.207224E13,1.2528084E13,1.909717E13,1.0321746E13,4.3322798E12,4.0657234E12,1.0340805E12,1.4122389E12,3.7650086E12,6.2626663E12,0E0,0E0,2.799312E12,6.792947E13,0E0,0E0,0E0,0E0,0E0,0E0,0E0,0E0,0E0,0E0,0E0,0E0,0E0,0E0,0E0,0E0,0E0,0E0,0E0,0E0,0E0,0E0,0E0,0E0,0E0,0E0,0E0,0E0,0E0,0E0,0E0,0E0,0E0,0E0,0E0,0E0,0E0,0E0,0E0,0E0,0E0,0E0,0E0,0E0,0E0,0E0,0E0,0E0,0E0,0E0,0E0,0E0,0E0,0E0,0E0,0E0,0E0,0E0,0E0,0E0],"parents":[2147483647,0,0,1,1,2,2,3,3,4,4,5,5,6,6,7,7,8,8,9,9,10,10,11,11,12,12,13,13,14,14,15,15,16,16,17,17,18,18,19,19,20,20,21,21,22,22,23,23,24,24,25,25,26,26,27,27,28,28,29,29,30,30,31,31,32,32,33,33,34,34,35,35,36,36,37,37,38,38,39,39,40,40,41,41,42,42,43,43,44,44,45,45,46,46,47,47,48,48,49,49,50,50,51,51,52,52,53,53,54,54,55,55,56,56,57,57,58,58,61,61,62,62],"right_children":[2,4,6,8,10,12,14,16,18,20,22,24,26,28,30,32,34,36,38,40,42,44,46,48,50,52,54,56,58,60,62,64,66,68,70,72,74,76,78,80,82,84,86,88,90,92,94,96,98,100,102,104,106,108,110,112,114,116,118,-1,-1,120,122,-1,-1,-1,-1,-1,-1,-1,-1,-1,-1,-1,-1,-1,-1,-1,-1,-1,-1,-1,-1,-1,-1,-1,-1,-1,-1,-1,-1,-1,-1,-1,-1,-1,-1,-1,-1,-1,-1,-1,-1,-1,-1,-1,-1,-1,-1,-1,-1,-1,-1,-1,-1,-1,-1,-1,-1,-1,-1,-1,-1],"split_conditions":[6.7975295E-1,3.330416E-2,2.6040695E0,-8.796005E-1,1.7568123E0,2.0698051E0,3.2311523E0,-8.3006066E-1,-1.2517045E-1,-3.7169683E-1,4.063446E0,4.5210055E-1,3.5222316E0,4.063446E0,4.063446E0,-1.2875152E0,-5.143526E-1,-5.2079564E-1,-4.6280846E-1,8.5156786E-1,8.096882E-1,-5.1426625E-1,8.25484E-1,1.2648818E0,1.2574781E0,7.9035914E-1,9.321056E-1,1.6717988E0,6.867739E-2,3.5222316E0,2.7133849E0,-1.3815638E0,-1.0696931E0,-1.1409779E0,-1.0845442E0,-5.023855E-1,-5.083259E-1,1.6590886E-1,1.9561084E-1,-9.300939E-1,-9.746468E-1,1.1244531E-1,1.6590886E-1,2.8102462E0,2.6040695E0,6.867739E-2,-3.5090545E-1,-2.920684E-1,-1.374359E-1,1.2648818E0,1.2648818E0,2.5539474E0,1.5119776E0,3.1873338E0,3.1873338E0,1.1490442E0,2.44405E0,2.1529708E0,2.7133849E0,8.5591086E4,1.0643546E5,3.1873338E0,3.1873338E0,-3.87652E4,-3.39045E4,-3.148212E4,-2.8102717E4,-2.6891404E4,-2.2443244E4,-2.0832562E4,-1.7373332E4,-1.9908969E4,-1.5127713E4,-1.3528408E4,-8.459429E3,-1.0017425E4,-4.412843E3,-3.2649646E3,2.3854E3,-1.1382411E4,-4.324696E3,-2.0478661E3,6.1809634E3,2.259239E3,9.091358E3,1.3379671E4,2.0379328E4,1.1591336E4,2.6703885E4,2.6660879E4,4.115694E4,6.188154E4,8.5672E4,3.9169207E4,6.3364812E4,4.7173457E3,1.3118281E4,1.6065687E4,2.352261E4,2.2823006E4,3.170012E4,3.620812E4,4.5174465E4,3.388701E4,4.2949906E4,5.068629E4,6.116023E4,5.9107613E4,7.104074E4,7.7806086E4,9.0337086E4,5.060795E4,5.8739312E4,6.759038E4,7.826952E4,8.121567E4,1.03585586E5,9.6909625E4,1.2378798E5,1.1399323E5,1.412186E5,1.5006848E5,2.1795733E5],"split_indices":[5,4,4,5,4,5,5,4,5,5,4,4,5,4,4,4,4,4,4,4,4,5,2,5,4,4,4,5,8,5,54,5,5,5,5,5,5,5,5,5,5,5,5,4,4,8,5,4,4,5,5,5,4,9,9,5,5,5,54,0,0,9,9,0,0,0,0,0,0,0,0,0,0,0,0,0,0,0,0,0,0,0,0,0,0,0,0,0,0,0,0,0,0,0,0,0,0,0,0,0,0,0,0,0,0,0,0,0,0,0,0,0,0,0,0,0,0,0,0,0,0,0,0],"split_type":[0,0,0,0,0,0,0,0,0,0,0,0,0,0,0,0,0,0,0,0,0,0,0,0,0,0,0,0,0,0,0,0,0,0,0,0,0,0,0,0,0,0,0,0,0,0,0,0,0,0,0,0,0,0,0,0,0,0,0,0,0,0,0,0,0,0,0,0,0,0,0,0,0,0,0,0,0,0,0,0,0,0,0,0,0,0,0,0,0,0,0,0,0,0,0,0,0,0,0,0,0,0,0,0,0,0,0,0,0,0,0,0,0,0,0,0,0,0,0,0,0,0,0],"sum_hessian":[1.02517E5,8.4363E4,1.8154E4,5.7244E4,2.7119E4,1.659E4,1.564E3,8.5E3,4.8744E4,2.3517E4,3.602E3,1.2222E4,4.368E3,9.8E2,5.84E2,6.086E3,2.414E3,3.2063E4,1.6681E4,1.1628E4,1.1889E4,3.21E3,3.92E2,7.736E3,4.486E3,3.479E3,8.89E2,6.65E2,3.15E2,2.66E2,3.18E2,2.188E3,3.898E3,7.93E2,1.621E3,2.0742E4,1.1321E4,9.974E3,6.707E3,7.507E3,4.121E3,8.203E3,3.686E3,1.194E3,2.016E3,2.67E2,1.25E2,4.873E3,2.863E3,2.841E3,1.645E3,2.398E3,1.081E3,4.4E2,4.49E2,3.37E2,3.28E2,1.56E2,1.59E2,4.2E1,2.24E2,1.39E2,1.79E2,7.08E2,1.48E3,2.672E3,1.226E3,1.79E2,6.14E2,5.48E2,1.073E3,7.082E3,1.366E4,4.803E3,6.518E3,6.217E3,3.757E3,3.524E3,3.183E3,2.146E3,5.361E3,1.741E3,2.38E3,4.413E3,3.79E3,2.231E3,1.455E3,9.56E2,2.38E2,1.631E3,3.85E2,1.3E2,1.37E2,9.8E1,2.7E1,1.438E3,3.435E3,6.28E2,2.235E3,1.368E3,1.473E3,8.78E2,7.67E2,1.246E3,1.152E3,6.33E2,4.48E2,2.71E2,1.69E2,2.68E2,1.81E2,1.63E2,1.74E2,2.11E2,1.17E2,1.06E2,5E1,6.7E1,9.2E1,5.1E1,8.8E1,1.06E2,7.3E1],"tree_param":{"num_deleted":"0","num_feature":"56","num_nodes":"123","size_leaf_vector":"1"}},{"base_weights":[5.8327246E2,-1.2164098E5,7.597136E5,-2.8109925E5,9.4345195E4,6.6432756E5,2.3705762E6,-5.309051E5,-2.222773E5,2.48885E4,4.746887E5,5.5664856E5,1.2392524E6,1.832586E6,2.9932245E6,-6.13198E5,-3.995932E5,-2.7082944E5,-7.284176E4,-8.035755E4,1.5618652E5,4.1364272E5,1.2775961E6,4.5933653E5,8.797036E5,1.0154372E6,1.4950165E6,1.436562E6,1.9967678E6,2.4743642E6,3.5041912E6,-6.717518E5,-5.7512875E5,-4.5861547E5,-3.6362594E5,-3.289954E5,-2.30616E5,-1.112239E5,2.0643793E4,-1.585841E5,4.098877E3,7.775048E4,2.5918788E5,2.5853528E5,5.705116E5,1.004556E6,1.5621108E6,3.5389188E5,6.2424044E5,7.890032E5,1.1128998E6,8.92942E5,1.1925642E6,1.2645361E6,1.651377E6,6.266198E4,7.843335E4,1.8090899E6,2.2415842E6,1.05118375E5,2.6725985E6,2.8831418E6,4.295294E6,-3.587139E4,-3.1730756E4,-2.973615E4,-2.6013494E4,-2.5914686E4,-2.1425549E4,-2.0630232E4,-1.7326547E4,-1.8685664E4,-1.4181398E4,-1.3571513E4,-9.017272E3,-8.029863E3,-3.4442976E3,-2.3213103E3,2.4815378E3,-1.0991229E4,-4.613814E3,-4.603166E3,3.01264E3,5.4783685E2,7.5750054E3,9.895371E3,1.6824742E4,9.905744E3,2.1764656E4,2.4688756E4,3.684509E4,5.9992375E4,3.8575027E4,6.4999527E4,8.886736E4,1.371133E4,2.266531E4,2.6808234E4,3.469329E4,3.4461785E4,4.6137145E4,4.9875363E4,6.1750176E4,4.0374605E4,4.790317E4,5.0174633E4,6.2977676E4,5.8282727E4,7.359413E4,7.5903805E4,9.2396516E4,7.8011766E4,9.8594766E4,1.1631685E5,9.030646E4,1.15227055E5,1.5518605E5,1.178974E5,1.5729098E5,2.3823108E5,1.7912794E5],"categories":[],"categories_nodes":[],"categories_segments":[],"categories_sizes":[],"default_left":[0,0,0,0,0,0,0,0,0,0,0,0,0,0,0,0,0,0,0,0,0,0,0,0,0,0,0,0,0,0,0,0,0,0,0,0,0,0,0,0,0,0,0,0,0,0,0,0,0,0,0,0,0,0,0,0,0,0,0,0,0,0,0,0,0,0,0,0,0,0,0,0,0,0,0,0,0,0,0,0,0,0,0,0,0,0,0,0,0,0,0,0,0,0,0,0,0,0,0,0,0,0,0,0,0,0,0,0,0,0,0,0,0,0,0,0,0,0,0,0,0],"id":5,"left_children":[1,3,5,7,9,11,13,15,17,19,21,23,25,27,29,31,33,35,37,39,41,43,45,47,49,51,53,55,57,59,61,63,65,67,69,71,73,75,77,79,81,83,85,87,89,91,93,95,97,99,101,103,105,107,109,-1,-1,111,113,-1,115,117,119,-1,-1,-1,-1,-1,-1,-1,-1,-1,-1,-1,-1,-1,-1,-1,-1,-1,-1,-1,-1,-1,-1,-1,-1,-1,-1,-1,-1,-1,-1,-1,-1,-1,-1,-1,-1,-1,-1,-1,-1,-1,-1,-1,-1,-1,-1,-1,-1,-1,-1,-1,-1,-1,-1,-1,-1,-1,-1],"loss_changes":[9.495344E15,3.0358434E15,2.1790812E15,7.450034E14,9.890029E14,8.28868E14,2.6015288E14,1.0418436E14,2.977862E14,4.3748168E14,2.828228E14,3.5445855E14,1.1943848E14,2.4959934E13,8.8363315E13,1.2852287E13,7.743088E12,7.2387916E13,3.612446E13,1.161008E14,1.13780965E14,1.3061029E14,3.0125773E13,1.5065685E14,5.4368515E13,2.3452803E13,3.3373372E13,1.1581816E12,9.728638E12,8.02367E12,7.703507E13,3.5037538E12,3.566836E12,2.3056928E12,1.7995577E12,2.5579751E13,3.7539155E13,1.490789E13,5.7006233E12,3.702569E13,4.5639967E13,3.9396603E13,2.8779469E13,2.8791884E13,3.3739988E13,8.677696E12,8.860216E12,4.1811372E13,2.0373446E13,2.4501983E13,9.039564E12,2.9658091E12,4.5496454E12,6.526337E12,1.2469766E13,0E0,0E0,4.0135127E12,4.4848854E11,0E0,1.14126E13,7.0677713E12,9.021981E12,0E0,0E0,0E0,0E0,0E0,0E0,0E0,0E0,0E0,0E0,0E0,0E0,0E0,0E0,0E0,0E0,0E0,0E0,0E0,0E0,0E0,0E0,0E0,0E0,0E0,0E0,0E0,0E0,0E0,0E0,0E0,0E0,0E0,0E0,0E0,0E0,0E0,0E0,0E0,0E0,0E0,0E0,0E0,0E0,0E0,0E0,0E0,0E0,0E0,0E0,0E0,0E0,0E0,0E0,0E0,0E0,0E0,0E0],"parents":[2147483647,0,0,1,1,2,2,3,3,4,4,5,5,6,6,7,7,8,8,9,9,10,10,11,11,12,12,13,13,14,14,15,15,16,16,17,17,18,18,19,19,20,20,21,21,22,22,23,23,24,24,25,25,26,26,27,27,28,28,29,29,30,30,31,31,32,32,33,33,34,34,35,35,36,36,37,37,38,38,39,39,40,40,41,41,42,42,43,43,44,44,45,45,46,46,47,47,48,48,49,49,50,50,51,51,52,52,53,53,54,54,57,57,58,58,60,60,61,61,62,62],"right_children":[2,4,6,8,10,12,14,16,18,20,22,24,26,28,30,32,34,36,38,40,42,44,46,48,50,52,54,56,58,60,62,64,66,68,70,72,74,76,78,80,82,84,86,88,90,92,94,96,98,100,102,104,106,108,110,-1,-1,112,114,-1,116,118,120,-1,-1,-1,-1,-1,-1,-1,-1,-1,-1,-1,-1,-1,-1,-1,-1,-1,-1,-1,-1,-1,-1,-1,-1,-1,-1,-1,-1,-1,-1,-1,-1,-1,-1,-1,-1,-1,-1,-1,-1,-1,-1,-1,-1,-1,-1,-1,-1,-1,-1,-1,-1,-1,-1,-1,-1,-1,-1],"split_conditions":[9.411303E-1,-2.2441669E-1,3.4416623E0,-7.726734E-1,1.4217752E0,2.8390863E0,3.5222316E0,-9.589211E-1,5.518216E-3,-1.6378301E-1,4.063446E0,1.0190864E0,9.321056E-1,4.063446E0,2.7133849E0,-1.2122626E0,-6.560991E-1,-7.7529496E-1,4.1243523E-1,4.134424E-1,3.1357557E-1,-2.3506775E-1,1.1770331E0,1.7222922E0,2.2432604E0,3.5222316E0,3.5222316E0,1.8559511E0,2.2420766E0,3.1873338E0,3.1873338E0,-1.3358378E0,-1.0043488E0,-1.0043488E0,-1.0043488E0,-3.5684583E-1,-3.2417366E-1,-6.593206E-1,-6.689851E-1,-5.7070005E-1,-8.5583895E-1,3.2629952E-1,3.2629952E-1,2.2432604E0,2.2432604E0,-2.3688402E-2,2.7133849E0,1.5894307E-1,1.8149364E-1,1.6717988E0,1.7222922E0,2.4592386E-1,1.5894307E-1,2.1433935E0,2.0531912E0,6.266198E4,7.843335E4,2.5256648E0,1.0469557E0,1.05118375E5,1.8239601E0,-1.1746912E-1,-9.8975927E-1,-3.587139E4,-3.1730756E4,-2.973615E4,-2.6013494E4,-2.5914686E4,-2.1425549E4,-2.0630232E4,-1.7326547E4,-1.8685664E4,-1.4181398E4,-1.3571513E4,-9.017272E3,-8.029863E3,-3.4442976E3,-2.3213103E3,2.4815378E3,-1.0991229E4,-4.613814E3,-4.603166E3,3.01264E3,5.4783685E2,7.5750054E3,9.895371E3,1.6824742E4,9.905744E3,2.1764656E4,2.4688756E4,3.684509E4,5.9992375E4,3.8575027E4,6.4999527E4,8.886736E4,1.371133E4,2.266531E4,2.6808234E4,3.469329E4,3.4461785E4,4.6137145E4,4.9875363E4,6.1750176E4,4.0374605E4,4.790317E4,5.0174633E4,6.2977676E4,5.8282727E4,7.359413E4,7.5903805E4,9.2396516E4,7.8011766E4,9.8594766E4,1.1631685E5,9.030646E4,1.15227055E5,1.5518605E5,1.178974E5,1.5729098E5,2.3823108E5,1.7912794E5],"split_indices":[5,4,4,5,4,5,5,4,5,5,4,4,4,4,54,5,4,4,5,4,4,5,12,5,4,5,5,5,5,9,9,4,5,5,5,5,5,4,4,5,5,5,5,4,4,2,54,4,4,5,5,4,4,4,4,0,0,54,6,0,54,8,45,0,0,0,0,0,0,0,0,0,0,0,0,0,0,0,0,0,0,0,0,0,0,0,0,0,0,0,0,0,0,0,0,0,0,0,0,0,0,0,0,0,0,0,0,0,0,0,0,0,0,0,0,0,0,0,0,0,0],"split_type":[0,0,0,0,0,0,0,0,0,0,0,0,0,0,0,0,0,0,0,0,0,0,0,0,0,0,0,0,0,0,0,0,0,0,0,0,0,0,0,0,0,0,0,0,0,0,0,0,0,0,0,0,0,0,0,0,0,0,0,0,0,0,0,0,0,0,0,0,0,0,0,0,0,0,0,0,0,0,0,0,0,0,0,0,0,0,0,0,0,0,0,0,0,0,0,0,0,0,0,0,0,0,0,0,0,0,0,0,0,0,0,0,0,0,0,0,0,0,0,0,0],"sum_hessian":[1.02336E5,8.8145E4,1.4191E4,5.0708E4,3.7437E4,1.3399E4,7.92E2,9.663E3,4.1045E4,3.1657E4,5.78E3,1.1287E4,2.112E3,4.27E2,3.65E2,5.938E3,3.725E3,3.0979E4,1.0066E4,1.7572E4,1.4085E4,5.373E3,4.07E2,8.676E3,2.611E3,1.129E3,9.83E2,1.28E2,2.99E2,1.84E2,1.81E2,2.333E3,3.605E3,1.406E3,2.319E3,1.266E4,1.8319E4,7.136E3,2.93E3,9.122E3,8.45E3,7.997E3,6.088E3,2.703E3,2.67E3,2.1E2,1.97E2,5.294E3,3.382E3,1.883E3,7.28E2,6.71E2,4.58E2,4.01E2,5.82E2,5.8E1,7E1,1.74E2,1.25E2,6.8E1,1.16E2,1.04E2,7.7E1,1.038E3,1.295E3,2.649E3,9.56E2,4.66E2,9.4E2,5.94E2,1.725E3,6.372E3,6.288E3,1.0108E4,8.211E3,3.293E3,3.843E3,8.84E2,2.046E3,4.741E3,4.381E3,3.115E3,5.335E3,4.197E3,3.8E3,3.398E3,2.69E3,2.016E3,6.87E2,1.83E3,8.4E2,1.12E2,9.8E1,9.2E1,1.05E2,2.941E3,2.353E3,1.497E3,1.885E3,1.082E3,8.01E2,3.79E2,3.49E2,2.96E2,3.75E2,1.24E2,3.34E2,2.76E2,1.25E2,3.52E2,2.3E2,7.3E1,1.01E2,1.01E2,2.4E1,6.6E1,5E1,3.8E1,6.6E1,4.3E1,3.4E1],"tree_param":{"num_deleted":"0","num_feature":"56","num_nodes":"121","size_leaf_vector":"1"}},{"base_weights":[4.0249158E2,-1.3412842E5,6.272365E5,-2.5083912E5,1.113446E5,5.2732925E5,1.897887E6,-5.2284528E5,-2.0500902E5,5.1704E4,5.056133E5,3.9655012E5,9.3225475E5,1.4117856E6,2.5235595E6,-5.833338E5,-3.669753E5,-2.7103797E5,-1.010089E5,-6.1219516E4,1.5450886E5,4.3200528E5,1.1747855E6,2.827979E5,6.1918475E5,8.0916194E5,1.3342244E6,1.1806125E6,1.8203584E6,1.8680172E6,2.936589E6,-6.3607156E5,-5.453818E5,-4.2614556E5,-3.3782175E5,-3.0518694E5,-1.8510566E5,-1.5676442E5,-2.3150938E4,-1.147063E5,5.678303E4,1.006598E5,3.0854834E5,2.5683197E5,5.3058044E5,1.3494545E6,7.91865E5,2.0320461E5,4.2206525E5,5.3353244E5,7.884505E5,7.064031E5,1.0285926E6,1.1455818E6,1.529287E6,1.03085594E6,1.3043162E6,1.6009208E6,2.0496525E6,7.812576E4,9.668252E4,2.447331E6,3.3244412E6,-3.455222E4,-3.0206482E4,-2.868189E4,-2.5868996E4,-2.4767062E4,-2.036069E4,-1.977416E4,-1.6076177E4,-1.8133143E4,-1.3968726E4,-1.170589E4,-7.354029E3,-9.822874E3,-4.6365576E3,-3.5747832E3,1.7728822E3,-1.0094245E4,-3.7988403E3,-1.8889677E3,5.856667E3,2.2403364E3,8.517254E3,1.2486386E4,1.878192E4,1.0405727E4,2.6045762E4,2.44767E4,3.99074E4,5.7094324E4,8.178221E4,3.221013E4,5.0034184E4,6.4658623E3,1.370315E4,1.8162006E4,2.4140387E4,2.268931E4,3.1099672E4,3.5853766E4,4.4809867E4,3.279493E4,4.1426227E4,4.6711863E4,5.7234715E4,4.7068777E4,5.94533E4,7.077496E4,8.517417E4,4.914225E4,5.7033707E4,6.0849746E4,6.898407E4,6.094026E4,8.383569E4,8.093374E4,1.13721086E5,1.0186195E5,1.358229E5,1.4117662E5,2.0545872E5],"categories":[],"categories_nodes":[],"categories_segments":[],"categories_sizes":[],"default_left":[0,0,0,0,0,0,0,0,0,0,0,0,0,0,0,0,0,0,0,0,0,0,0,0,0,0,0,0,0,0,0,0,0,0,0,0,0,0,0,0,0,0,0,0,0,0,0,0,0,0,0,0,0,0,0,0,0,0,0,0,0,0,0,0,0,0,0,0,0,0,0,0,0,0,0,0,0,0,0,0,0,0,0,0,0,0,0,0,0,0,0,0,0,0,0,0,0,0,0,0,0,0,0,0,0,0,0,0,0,0,0,0,0,0,0,0,0,0,0,0,0,0,0],"id":6,"left_children":[1,3,5,7,9,11,13,15,17,19,21,23,25,27,29,31,33,35,37,39,41,43,45,47,49,51,53,55,57,59,61,63,65,67,69,71,73,75,77,79,81,83,85,87,89,91,93,95,97,99,101,103,105,107,109,111,113,115,117,-1,-1,119,121,-1,-1,-1,-1,-1,-1,-1,-1,-1,-1,-1,-1,-1,-1,-1,-1,-1,-1,-1,-1,-1,-1,-1,-1,-1,-1,-1,-1,-1,-1,-1,-1,-1,-1,-1,-1,-1,-1,-1,-1,-1,-1,-1,-1,-1,-1,-1,-1,-1,-1,-1,-1,-1,-1,-1,-1,-1,-1,-1,-1],"loss_changes":[8.631534E15,2.414307E15,2.2949658E15,7.1189244E14,6.385316E14,8.876457E14,3.9729414E14,7.74286E13,3.3563948E14,2.7385617E14,1.752395E14,3.2087217E14,2.0144041E14,6.812261E13,1.5020064E14,1.1524068E13,3.8321846E12,8.767921E13,8.2406145E13,7.096125E13,1.0239417E14,5.5396757E13,2.25416E13,9.2937455E13,6.171774E13,6.998542E13,3.3499671E13,7.5106227E12,1.01529E13,1.4901523E12,5.8469806E13,3.9302306E12,2.4376624E12,7.899636E11,1.3285542E12,3.1638742E13,1.5816251E13,2.809781E13,2.2451688E13,2.6104358E13,2.0018415E13,3.5609322E13,1.2526373E13,1.4815523E13,2.2200686E13,1.2448594E13,2.8396696E12,2.7932823E13,1.0726412E13,1.9815838E13,1.0416168E13,1.2649216E13,9.86346E12,3.24062E12,6.8651697E12,4.4090524E10,1.8824036E10,2.0400088E12,8.6209724E12,0E0,0E0,1.2014299E13,6.426197E13,0E0,0E0,0E0,0E0,0E0,0E0,0E0,0E0,0E0,0E0,0E0,0E0,0E0,0E0,0E0,0E0,0E0,0E0,0E0,0E0,0E0,0E0,0E0,0E0,0E0,0E0,0E0,0E0,0E0,0E0,0E0,0E0,0E0,0E0,0E0,0E0,0E0,0E0,0E0,0E0,0E0,0E0,0E0,0E0,0E0,0E0,0E0,0E0,0E0,0E0,0E0,0E0,0E0,0E0,0E0,0E0,0E0,0E0,0E0,0E0],"parents":[2147483647,0,0,1,1,2,2,3,3,4,4,5,5,6,6,7,7,8,8,9,9,10,10,11,11,12,12,13,13,14,14,15,15,16,16,17,17,18,18,19,19,20,20,21,21,22,22,23,23,24,24,25,25,26,26,27,27,28,28,29,29,30,30,31,31,32,32,33,33,34,34,35,35,36,36,37,37,38,38,39,39,40,40,41,41,42,42,43,43,44,44,45,45,46,46,47,47,48,48,49,49,50,50,51,51,52,52,53,53,54,54,55,55,56,56,57,57,58,58,61,61,62,62],"right_children":[2,4,6,8,10,12,14,16,18,20,22,24,26,28,30,32,34,36,38,40,42,44,46,48,50,52,54,56,58,60,62,64,66,68,70,72,74,76,78,80,82,84,86,88,90,92,94,96,98,100,102,104,106,108,110,112,114,116,118,-1,-1,120,122,-1,-1,-1,-1,-1,-1,-1,-1,-1,-1,-1,-1,-1,-1,-1,-1,-1,-1,-1,-1,-1,-1,-1,-1,-1,-1,-1,-1,-1,-1,-1,-1,-1,-1,-1,-1,-1,-1,-1,-1,-1,-1,-1,-1,-1,-1,-1,-1,-1,-1,-1,-1,-1,-1,-1,-1,-1,-1,-1,-1],"split_conditions":[6.7975295E-1,3.330416E-2,2.8102462E0,-8.9148134E-1,1.7568123E0,2.1529708E0,3.0262086E0,-8.3006066E-1,-1.7566381E-1,-4.04369E-1,4.063446E0,5.3908134E-1,3.5222316E0,4.063446E0,4.063446E0,-1.2617431E0,-5.014666E-1,-4.5314392E-1,-5.014666E-1,9.321056E-1,8.96669E-1,-5.3208745E-1,8.25484E-1,1.3094348E0,1.4636549E0,7.9035914E-1,9.610992E-1,1.6123948E0,8.499878E-2,3.5222316E0,2.7133849E0,-1.3019626E0,-1.1409779E0,-1.1677096E0,-1.1558288E0,-5.5287886E-1,-5.2614707E-1,1.1244531E-1,1.7481945E-1,-9.300939E-1,-1.0370209E0,1.1244531E-1,6.492216E-2,3.0711887E0,2.8102462E0,1.3697931E-1,-9.8949784E-1,-7.300569E-2,7.8405306E-2,1.3569579E0,1.404481E0,2.8390863E0,1.5119776E0,3.330416E-2,3.1873338E0,3.4416623E0,2.2420766E0,1.042117E0,2.5256648E0,7.812576E4,9.668252E4,3.1873338E0,3.1873338E0,-3.455222E4,-3.0206482E4,-2.868189E4,-2.5868996E4,-2.4767062E4,-2.036069E4,-1.977416E4,-1.6076177E4,-1.8133143E4,-1.3968726E4,-1.170589E4,-7.354029E3,-9.822874E3,-4.6365576E3,-3.5747832E3,1.7728822E3,-1.0094245E4,-3.7988403E3,-1.8889677E3,5.856667E3,2.2403364E3,8.517254E3,1.2486386E4,1.878192E4,1.0405727E4,2.6045762E4,2.44767E4,3.99074E4,5.7094324E4,8.178221E4,3.221013E4,5.0034184E4,6.4658623E3,1.370315E4,1.8162006E4,2.4140387E4,2.268931E4,3.1099672E4,3.5853766E4,4.4809867E4,3.279493E4,4.1426227E4,4.6711863E4,5.7234715E4,4.7068777E4,5.94533E4,7.077496E4,8.517417E4,4.914225E4,5.7033707E4,6.0849746E4,6.898407E4,6.094026E4,8.383569E4,8.093374E4,1.13721086E5,1.0186195E5,1.358229E5,1.4117662E5,2.0545872E5],"split_indices":[5,4,4,5,4,5,5,4,5,5,4,4,5,4,4,4,4,4,4,4,4,5,2,5,4,4,4,5,8,5,54,5,5,5,5,5,5,5,5,5,5,5,5,4,4,8,5,4,4,5,5,5,4,4,9,4,5,5,54,0,0,9,9,0,0,0,0,0,0,0,0,0,0,0,0,0,0,0,0,0,0,0,0,0,0,0,0,0,0,0,0,0,0,0,0,0,0,0,0,0,0,0,0,0,0,0,0,0,0,0,0,0,0,0,0,0,0,0,0,0,0,0,0],"split_type":[0,0,0,0,0,0,0,0,0,0,0,0,0,0,0,0,0,0,0,0,0,0,0,0,0,0,0,0,0,0,0,0,0,0,0,0,0,0,0,0,0,0,0,0,0,0,0,0,0,0,0,0,0,0,0,0,0,0,0,0,0,0,0,0,0,0,0,0,0,0,0,0,0,0,0,0,0,0,0,0,0,0,0,0,0,0,0,0,0,0,0,0,0,0,0,0,0,0,0,0,0,0,0,0,0,0,0,0,0,0,0,0,0,0,0,0,0,0,0,0,0,0,0],"sum_hessian":[1.02354E5,8.4269E4,1.8085E4,5.7114E4,2.7155E4,1.6768E4,1.317E3,8.234E3,4.888E4,2.3588E4,3.567E3,1.2676E4,4.092E3,7.43E2,5.74E2,5.93E3,2.304E3,2.9897E4,1.8983E4,1.1241E4,1.2347E4,3.215E3,3.52E2,8.391E3,4.285E3,3.135E3,9.57E2,4.77E2,2.66E2,2.24E2,3.5E2,2.475E3,3.455E3,7.56E2,1.548E3,2.1393E4,8.504E3,1.1061E4,7.922E3,7.735E3,3.506E3,9.15E3,3.197E3,1.159E3,2.056E3,2.4E2,1.12E2,5.341E3,3.05E3,2.848E3,1.437E3,2.138E3,9.97E2,4.9E2,4.67E2,2.2E2,2.57E2,1.4E2,1.26E2,4.4E1,1.8E2,1.58E2,1.92E2,9.02E2,1.573E3,1.71E3,1.745E3,1.57E2,5.99E2,3.36E2,1.212E3,6.626E3,1.4767E4,3.713E3,4.791E3,6.827E3,4.234E3,4.341E3,3.581E3,2.378E3,5.357E3,1.366E3,2.14E3,5.08E3,4.07E3,1.706E3,1.491E3,9.8E2,1.79E2,1.785E3,2.71E2,1.42E2,9.8E1,6.8E1,4.4E1,2.616E3,2.725E3,1.553E3,1.497E3,1.501E3,1.347E3,8.69E2,5.68E2,1.517E3,6.21E2,5.55E2,4.42E2,9E1,4E2,2.88E2,1.79E2,1.6E2,6E1,1.27E2,1.3E2,2.6E1,1.14E2,4.6E1,8E1,6.6E1,9.2E1,1.2E2,7.2E1],"tree_param":{"num_deleted":"0","num_feature":"56","num_nodes":"123","size_leaf_vector":"1"}},{"base_weights":[2.3290926E2,-1.11057555E5,6.890287E5,-2.5789119E5,7.701655E4,5.8862775E5,1.9789211E6,-4.6208697E5,-1.9948523E5,1.2978073E4,4.0479088E5,4.8493934E5,1.0499779E6,1.5220501E6,2.610751E6,-5.4978875E5,-3.5261153E5,-2.4518028E5,-7.9154086E4,-6.911574E4,1.5037484E5,3.4213325E5,1.0157336E6,3.9161175E5,7.238582E5,8.566582E5,1.2662469E6,1.2139015E6,1.8271694E6,9.572715E4,2.9473725E6,-5.923483E5,-5.0339572E5,-4.0366978E5,-3.2171425E5,-2.922624E5,-2.0367878E5,-1.12219625E5,1.0871918E4,-1.2862591E5,1.2763375E4,8.544866E4,2.4784045E5,1.306471E5,4.463545E5,8.2212575E5,1.286429E6,2.9198916E5,5.2081644E5,6.5159244E5,9.238039E5,7.609555E5,1.069881E6,1.0761122E6,1.4435572E6,5.3814113E4,6.753763E4,1.6162498E6,2.0342682E6,1.1926152E5,3.3347048E6,-3.290201E4,-2.8545734E4,-2.6268354E4,-2.2905584E4,-2.3389646E4,-1.9037232E4,-1.8437914E4,-1.5278792E4,-1.61948545E4,-1.2323489E4,-1.2182003E4,-8.481195E3,-8.418858E3,-4.114595E3,-1.6869166E3,2.2805762E3,-9.976686E3,-3.566761E3,-2.8307424E3,4.843754E3,1.951762E3,7.774023E3,1.0310468E4,1.6137672E4,2.954765E3,1.0171635E4,1.8203143E4,2.8676957E4,3.1001959E4,5.343697E4,4.202365E4,7.156399E4,9.974672E3,1.7609215E4,2.106792E4,2.8340307E4,2.894528E4,3.881326E4,4.2482367E4,5.314126E4,3.4807145E4,4.1202906E4,4.894322E4,6.0372215E4,4.860822E4,6.057424E4,6.5724164E4,8.100716E4,6.972613E4,8.779821E4,8.593827E4,1.1190348E5,1.30232555E5,1.8907783E5],"categories":[],"categories_nodes":[],"categories_segments":[],"categories_sizes":[],"default_left":[0,0,0,0,0,0,0,0,0,0,0,0,0,0,0,0,0,0,0,0,0,0,0,0,0,0,0,0,0,0,0,0,0,0,0,0,0,0,0,0,0,0,0,0,0,0,0,0,0,0,0,0,0,0,0,0,0,0,0,0,0,0,0,0,0,0,0,0,0,0,0,0,0,0,0,0,0,0,0,0,0,0,0,0,0,0,0,0,0,0,0,0,0,0,0,0,0,0,0,0,0,0,0,0,0,0,0,0,0,0,0,0,0,0,0],"id":7,"left_children":[1,3,5,7,9,11,13,15,17,19,21,23,25,27,29,31,33,35,37,39,41,43,45,47,49,51,53,55,57,-1,59,61,63,65,67,69,71,73,75,77,79,81,83,85,87,89,91,93,95,97,99,101,103,105,107,-1,-1,109,111,-1,113,-1,-1,-1,-1,-1,-1,-1,-1,-1,-1,-1,-1,-1,-1,-1,-1,-1,-1,-1,-1,-1,-1,-1,-1,-1,-1,-1,-1,-1,-1,-1,-1,-1,-1,-1,-1,-1,-1,-1,-1,-1,-1,-1,-1,-1,-1,-1,-1,-1,-1,-1,-1,-1,-1],"loss_changes":[7.848159E15,2.4340592E15,1.8431364E15,5.9022085E14,8.111388E14,6.316045E14,2.927737E14,1.0549648E14,2.1161921E14,3.6466292E14,2.4143038E14,2.4033134E14,1.00260374E14,5.4101153E13,9.513138E13,1.176566E13,7.5986025E12,5.4448777E13,3.1539975E13,9.861411E13,7.649785E13,1.2623862E14,2.9706276E13,9.975813E13,4.3179185E13,2.5366815E13,3.694665E13,4.2150742E12,9.772795E12,0E0,5.4753854E13,4.103103E12,2.6745567E12,2.531145E12,2.2082172E12,1.8849538E13,2.0140444E13,1.300964E13,4.4136556E12,4.7596593E13,4.971828E13,2.3588686E13,1.50093E13,9.846611E12,3.9960644E13,1.6531228E13,1.4494172E13,2.4344512E13,1.5212304E13,1.9749937E13,7.3650636E12,3.062211E12,3.7637E12,6.6320335E12,1.127241E13,0E0,0E0,2.2909624E12,5.605402E12,0E0,4.495623E13,0E0,0E0,0E0,0E0,0E0,0E0,0E0,0E0,0E0,0E0,0E0,0E0,0E0,0E0,0E0,0E0,0E0,0E0,0E0,0E0,0E0,0E0,0E0,0E0,0E0,0E0,0E0,0E0,0E0,0E0,0E0,0E0,0E0,0E0,0E0,0E0,0E0,0E0,0E0,0E0,0E0,0E0,0E0,0E0,0E0,0E0,0E0,0E0,0E0,0E0,0E0,0E0,0E0,0E0],"parents":[2147483647,0,0,1,1,2,2,3,3,4,4,5,5,6,6,7,7,8,8,9,9,10,10,11,11,12,12,13,13,14,14,15,15,16,16,17,17,18,18,19,19,20,20,21,21,22,22,23,23,24,24,25,25,26,26,27,27,28,28,30,30,31,31,32,32,33,33,34,34,35,35,36,36,37,37,38,38,39,39,40,40,41,41,42,42,43,43,44,44,45,45,46,46,47,47,48,48,49,49,50,50,51,51,52,52,53,53,54,54,57,57,58,58,60,60],"right_children":[2,4,6,8,10,12,14,16,18,20,22,24,26,28,30,32,34,36,38,40,42,44,46,48,50,52,54,56,58,-1,60,62,64,66,68,70,72,74,76,78,80,82,84,86,88,90,92,94,96,98,100,102,104,106,108,-1,-1,110,112,-1,114,-1,-1,-1,-1,-1,-1,-1,-1,-1,-1,-1,-1,-1,-1,-1,-1,-1,-1,-1,-1,-1,-1,-1,-1,-1,-1,-1,-1,-1,-1,-1,-1,-1,-1,-1,-1,-1,-1,-1,-1,-1,-1,-1,-1,-1,-1,-1,-1,-1,-1,-1,-1,-1,-1],"split_conditions":[9.411303E-1,-2.566318E-1,3.0711887E0,-7.073291E-1,1.3444589E0,2.684636E0,3.5222316E0,-9.589211E-1,-2.7153952E-2,-3.3094347E-2,3.4416623E0,7.45258E-1,7.742516E-1,4.063446E0,4.063446E0,-1.1558288E0,-6.689851E-1,-7.463014E-1,3.9758423E-1,4.1988543E-1,3.1357557E-1,-6.00402E-1,5.892587E-2,1.6123948E0,1.9726535E0,3.5222316E0,3.5222316E0,1.8559511E0,4.8637196E-2,9.572715E4,-1.3755971E-2,-1.3815638E0,-1.1361042E0,-9.8949784E-1,-9.5979583E-1,-3.0932269E-1,-3.776372E-1,-7.2697234E-1,-6.17441E-1,-5.7070005E-1,-6.063424E-1,4.7777957E-1,4.9560073E-1,-1.0964249E0,1.9561084E-1,-6.895079E-1,4.063446E0,-4.4012092E-2,3.330416E-2,1.7876365E0,1.8559511E0,2.3948084E-1,3.1873338E0,1.5892937E0,1.7568123E0,5.3814113E4,6.753763E4,1.9242655E0,2.7133849E0,1.1926152E5,2.7133849E0,-3.290201E4,-2.8545734E4,-2.6268354E4,-2.2905584E4,-2.3389646E4,-1.9037232E4,-1.8437914E4,-1.5278792E4,-1.61948545E4,-1.2323489E4,-1.2182003E4,-8.481195E3,-8.418858E3,-4.114595E3,-1.6869166E3,2.2805762E3,-9.976686E3,-3.566761E3,-2.8307424E3,4.843754E3,1.951762E3,7.774023E3,1.0310468E4,1.6137672E4,2.954765E3,1.0171635E4,1.8203143E4,2.8676957E4,3.1001959E4,5.343697E4,4.202365E4,7.156399E4,9.974672E3,1.7609215E4,2.106792E4,2.8340307E4,2.894528E4,3.881326E4,4.2482367E4,5.314126E4,3.4807145E4,4.1202906E4,4.894322E4,6.0372215E4,4.860822E4,6.057424E4,6.5724164E4,8.100716E4,6.972613E4,8.779821E4,8.593827E4,1.1190348E5,1.30232555E5,1.8907783E5],"split_indices":[5,4,4,5,4,5,5,4,5,5,4,4,4,4,4,5,4,4,5,4,4,5,8,5,4,5,5,5,8,0,8,5,4,5,5,5,5,4,4,5,5,5,5,5,5,5,4,4,4,5,5,4,9,4,4,0,0,5,54,0,54,0,0,0,0,0,0,0,0,0,0,0,0,0,0,0,0,0,0,0,0,0,0,0,0,0,0,0,0,0,0,0,0,0,0,0,0,0,0,0,0,0,0,0,0,0,0,0,0,0,0,0,0,0,0],"split_type":[0,0,0,0,0,0,0,0,0,0,0,0,0,0,0,0,0,0,0,0,0,0,0,0,0,0,0,0,0,0,0,0,0,0,0,0,0,0,0,0,0,0,0,0,0,0,0,0,0,0,0,0,0,0,0,0,0,0,0,0,0,0,0,0,0,0,0,0,0,0,0,0,0,0,0,0,0,0,0,0,0,0,0,0,0,0,0,0,0,0,0,0,0,0,0,0,0,0,0,0,0,0,0,0,0,0,0,0,0,0,0,0,0,0,0],"sum_hessian":[1.02379E5,8.8139E4,1.424E4,4.9496E4,3.8643E4,1.3213E4,1.027E3,1.1007E4,3.8489E4,3.2328E4,6.315E3,1.079E4,2.423E3,5.98E2,4.29E2,6.109E3,4.898E3,2.7895E4,1.0594E4,2.0237E4,1.2091E4,5.729E3,5.86E2,7.761E3,3.029E3,1.282E3,1.141E3,3E2,2.98E2,1.42E2,2.87E2,3.18E3,2.929E3,1.842E3,3.056E3,1.3066E4,1.4829E4,7.748E3,2.846E3,1.1719E4,8.518E3,7.258E3,4.833E3,1.892E3,3.837E3,3.44E2,2.42E2,4.384E3,3.377E3,2.228E3,8.01E2,8.88E2,3.94E2,5.54E2,5.87E2,1.54E2,1.46E2,1.52E2,1.46E2,1.2E2,1.67E2,7.75E2,2.405E3,1.965E3,9.64E2,4.8E2,1.362E3,7.75E2,2.281E3,7.724E3,5.342E3,6.82E3,8.009E3,2.692E3,5.056E3,1.246E3,1.6E3,5.236E3,6.483E3,4.668E3,3.85E3,4.366E3,2.892E3,3.109E3,1.724E3,9.55E2,9.37E2,2.332E3,1.505E3,1.91E2,1.53E2,6.1E1,1.81E2,1.73E3,2.654E3,1.071E3,2.306E3,1.411E3,8.17E2,5.27E2,2.74E2,4.44E2,4.44E2,2.42E2,1.52E2,3.18E2,2.36E2,3.44E2,2.43E2,6.3E1,8.9E1,6.1E1,8.5E1,6.6E1,1.01E2],"tree_param":{"num_deleted":"0","num_feature":"56","num_nodes":"115","size_leaf_vector":"1"}},{"base_weights":[-9.372688E2,-1.05888234E5,6.542696E5,-2.329218E5,9.2701805E4,5.401481E5,1.6756944E6,-4.2593056E5,-1.7633719E5,4.2476383E4,4.8500822E5,4.296172E5,9.0577475E5,1.2946866E6,2.3256585E6,-5.1742828E5,-3.2109225E5,-2.2002145E5,-4.251564E4,-6.0737727E4,1.4799284E5,4.1462216E5,1.0911774E6,3.2289588E5,5.91137E5,7.7588956E5,1.1927966E6,1.0965225E6,1.7141226E6,1.7526034E6,2.6961408E6,-5.6758406E5,-4.766376E5,-3.610331E5,-2.8514897E5,-2.7095162E5,-1.785298E5,-7.899267E4,4.4044438E4,-1.1804262E5,4.1557688E4,9.208742E4,2.8396328E5,3.1128412E5,5.9107725E5,8.3858356E5,1.3433711E6,2.4364875E5,4.2609116E5,5.1475212E5,7.323377E5,6.8028594E5,9.366857E5,1.0368385E6,1.3743849E6,9.685354E5,1.2507738E6,1.4452948E6,1.8612744E6,1.6480102E6,1.917503E6,2.2679265E6,3.0220282E6,-3.0907838E4,-2.6896688E4,-2.5183326E4,-2.1603191E4,-2.1249514E4,-1.716205E4,-1.6637129E4,-1.3305808E4,-1.5156122E4,-1.1356597E4,-1.0675491E4,-6.893379E3,-6.0289033E3,-1.6614104E3,-4.8492287E1,4.285088E3,-9.90066E3,-3.9353547E3,-2.2991934E3,4.9414565E3,1.8152991E3,8.274762E3,1.12436045E4,1.78943E4,9.060364E3,1.9039559E4,2.6920438E4,3.8244844E4,5.0261168E4,3.2416207E4,5.3936082E4,8.4039805E4,5.8581167E3,1.3959057E4,1.896349E4,2.4376998E4,2.2143318E4,2.9973344E4,3.2303584E4,4.0609047E4,3.1965857E4,3.8870605E4,4.261853E4,5.1837605E4,4.7766758E4,5.844279E4,6.3376652E4,7.681959E4,4.3002516E4,5.0539105E4,5.756374E4,6.756792E4,6.0558227E4,7.990793E4,7.893996E4,1.0860169E5,7.20187E4,8.712695E4,8.60369E4,1.1211018E5,9.632255E4,1.2319558E5,1.27228266E5,1.7845727E5],"categories":[],"categories_nodes":[],"categories_segments":[],"categories_sizes":[],"default_left":[0,0,0,0,0,0,0,0,0,0,0,0,0,0,0,0,0,0,0,0,0,0,0,0,0,0,0,0,0,0,0,0,0,0,0,0,0,0,0,0,0,0,0,0,0,0,0,0,0,0,0,0,0,0,0,0,0,0,0,0,0,0,0,0,0,0,0,0,0,0,0,0,0,0,0,0,0,0,0,0,0,0,0,0,0,0,0,0,0,0,0,0,0,0,0,0,0,0,0,0,0,0,0,0,0,0,0,0,0,0,0,0,0,0,0,0,0,0,0,0,0,0,0,0,0,0,0],"id":8,"left_children":[1,3,5,7,9,11,13,15,17,19,21,23,25,27,29,31,33,35,37,39,41,43,45,47,49,51,53,55,57,59,61,63,65,67,69,71,73,75,77,79,81,83,85,87,89,91,93,95,97,99,101,103,105,107,109,111,113,115,117,119,121,123,125,-1,-1,-1,-1,-1,-1,-1,-1,-1,-1,-1,-1,-1,-1,-1,-1,-1,-1,-1,-1,-1,-1,-1,-1,-1,-1,-1,-1,-1,-1,-1,-1,-1,-1,-1,-1,-1,-1,-1,-1,-1,-1,-1,-1,-1,-1,-1,-1,-1,-1,-1,-1,-1,-1,-1,-1,-1,-1,-1,-1,-1,-1,-1,-1],"loss_changes":[7.0595116E15,2.2323616E15,1.6513086E15,5.8931595E14,6.801925E14,5.1491772E14,3.496302E14,1.17187914E14,2.4396327E14,3.3332154E14,1.6671244E14,1.6861706E14,1.0938557E14,7.292586E13,1.0673584E14,1.3091195E13,8.0857457E12,6.643858E13,3.243685E13,9.070219E13,1.1501476E14,6.3855628E13,2.4800416E13,4.8137792E13,4.1632997E13,3.0723243E13,2.4629624E13,1.0910224E13,8.6632846E12,4.4459622E11,3.7383664E13,4.051966E12,4.1292755E12,2.9242687E12,2.635298E12,1.9840601E13,2.4635832E13,1.3749935E13,5.7118656E12,3.118017E13,2.786028E13,4.391475E13,1.9178807E13,1.997544E13,1.1452799E13,5.8794747E12,1.6225313E13,1.497395E13,7.1834E12,1.5147746E13,8.877026E12,4.6082315E12,5.511651E12,4.252521E12,5.357636E12,6.889396E11,1.1964168E12,1.8580934E12,1.2547076E13,1.3982132E11,9.334843E11,4.689769E12,3.715536E13,0E0,0E0,0E0,0E0,0E0,0E0,0E0,0E0,0E0,0E0,0E0,0E0,0E0,0E0,0E0,0E0,0E0,0E0,0E0,0E0,0E0,0E0,0E0,0E0,0E0,0E0,0E0,0E0,0E0,0E0,0E0,0E0,0E0,0E0,0E0,0E0,0E0,0E0,0E0,0E0,0E0,0E0,0E0,0E0,0E0,0E0,0E0,0E0,0E0,0E0,0E0,0E0,0E0,0E0,0E0,0E0,0E0,0E0,0E0,0E0,0E0,0E0,0E0,0E0],"parents":[2147483647,0,0,1,1,2,2,3,3,4,4,5,5,6,6,7,7,8,8,9,9,10,10,11,11,12,12,13,13,14,14,15,15,16,16,17,17,18,18,19,19,20,20,21,21,22,22,23,23,24,24,25,25,26,26,27,27,28,28,29,29,30,30,31,31,32,32,33,33,34,34,35,35,36,36,37,37,38,38,39,39,40,40,41,41,42,42,43,43,44,44,45,45,46,46,47,47,48,48,49,49,50,50,51,51,52,52,53,53,54,54,55,55,56,56,57,57,58,58,59,59,60,60,61,61,62,62],"right_children":[2,4,6,8,10,12,14,16,18,20,22,24,26,28,30,32,34,36,38,40,42,44,46,48,50,52,54,56,58,60,62,64,66,68,70,72,74,76,78,80,82,84,86,88,90,92,94,96,98,100,102,104,106,108,110,112,114,116,118,120,122,124,126,-1,-1,-1,-1,-1,-1,-1,-1,-1,-1,-1,-1,-1,-1,-1,-1,-1,-1,-1,-1,-1,-1,-1,-1,-1,-1,-1,-1,-1,-1,-1,-1,-1,-1,-1,-1,-1,-1,-1,-1,-1,-1,-1,-1,-1,-1,-1,-1,-1,-1,-1,-1,-1,-1,-1,-1,-1,-1,-1,-1,-1,-1,-1,-1],"split_conditions":[9.411303E-1,-1.2454986E-1,2.6040695E0,-6.895079E-1,1.7568123E0,2.44405E0,3.5222316E0,-9.1059846E-1,3.8190383E-2,-2.736803E-1,4.063446E0,4.9398017E-1,3.5222316E0,4.063446E0,4.063446E0,-1.242414E0,-5.336817E-1,-7.366369E-1,4.6292856E-1,7.323719E-1,7.130429E-1,3.8190383E-2,6.497088E-1,1.508438E0,1.3058008E0,6.743848E-1,9.610992E-1,1.9985205E0,2.3732758E0,1.965788E0,2.7133849E0,-1.277607E0,-1.02217E0,-9.746468E-1,-9.4494486E-1,-2.974419E-1,-2.974419E-1,-5.852259E-1,-4.7891602E-1,-8.231668E-1,-9.4494486E-1,2.9956773E-1,2.4610418E-1,-8.4395814E-1,2.6040695E0,-2.3688402E-2,2.5256648E0,-2.920684E-1,1.9242655E0,1.6123948E0,1.508438E0,3.0262086E0,1.3058008E0,3.1873338E0,3.1873338E0,1.2262692E0,2.5539474E0,1.9985205E0,1.7290606E0,3.1873338E0,2.7395177E0,2.050058E0,3.1873338E0,-3.0907838E4,-2.6896688E4,-2.5183326E4,-2.1603191E4,-2.1249514E4,-1.716205E4,-1.6637129E4,-1.3305808E4,-1.5156122E4,-1.1356597E4,-1.0675491E4,-6.893379E3,-6.0289033E3,-1.6614104E3,-4.8492287E1,4.285088E3,-9.90066E3,-3.9353547E3,-2.2991934E3,4.9414565E3,1.8152991E3,8.274762E3,1.12436045E4,1.78943E4,9.060364E3,1.9039559E4,2.6920438E4,3.8244844E4,5.0261168E4,3.2416207E4,5.3936082E4,8.4039805E4,5.8581167E3,1.3959057E4,1.896349E4,2.4376998E4,2.2143318E4,2.9973344E4,3.2303584E4,4.0609047E4,3.1965857E4,3.8870605E4,4.261853E4,5.1837605E4,4.7766758E4,5.844279E4,6.3376652E4,7.681959E4,4.3002516E4,5.0539105E4,5.756374E4,6.756792E4,6.0558227E4,7.990793E4,7.893996E4,1.0860169E5,7.20187E4,8.712695E4,8.60369E4,1.1211018E5,9.632255E4,1.2319558E5,1.27228266E5,1.7845727E5],"split_indices":[5,4,4,5,4,5,5,4,5,5,4,4,5,4,4,4,4,4,5,4,4,5,9,5,4,4,4,5,54,54,54,5,5,5,5,5,5,4,4,5,5,5,5,5,4,2,54,4,5,5,5,5,4,9,9,5,5,5,9,9,9,42,9,0,0,0,0,0,0,0,0,0,0,0,0,0,0,0,0,0,0,0,0,0,0,0,0,0,0,0,0,0,0,0,0,0,0,0,0,0,0,0,0,0,0,0,0,0,0,0,0,0,0,0,0,0,0,0,0,0,0,0,0,0,0,0,0],"split_type":[0,0,0,0,0,0,0,0,0,0,0,0,0,0,0,0,0,0,0,0,0,0,0,0,0,0,0,0,0,0,0,0,0,0,0,0,0,0,0,0,0,0,0,0,0,0,0,0,0,0,0,0,0,0,0,0,0,0,0,0,0,0,0,0,0,0,0,0,0,0,0,0,0,0,0,0,0,0,0,0,0,0,0,0,0,0,0,0,0,0,0,0,0,0,0,0,0,0,0,0,0,0,0,0,0,0,0,0,0,0,0,0,0,0,0,0,0,0,0,0,0,0,0,0,0,0,0],"sum_hessian":[1.0266E5,8.8487E4,1.4173E4,5.3966E4,3.4521E4,1.275E4,1.423E3,1.2233E4,4.1733E4,3.0604E4,3.917E3,9.792E3,2.958E3,8.99E2,5.24E2,6.53E3,5.703E3,3.1462E4,1.0271E4,1.5471E4,1.5133E4,3.511E3,4.06E2,5.898E3,3.894E3,2.039E3,9.19E2,6.13E2,2.86E2,2.08E2,3.16E2,2.923E3,3.607E3,2.697E3,3.006E3,1.4122E4,1.734E4,7.226E3,3.045E3,9.916E3,5.555E3,1.0725E4,4.408E3,2.216E3,1.295E3,2.05E2,2.01E2,3.338E3,2.56E3,2.53E3,1.364E3,1.282E3,7.57E2,4.98E2,4.21E2,3.39E2,2.74E2,1.05E2,1.81E2,1.34E2,7.4E1,1.4E2,1.76E2,1.073E3,1.85E3,2.239E3,1.368E3,5.82E2,2.115E3,8.54E2,2.152E3,8.14E3,5.982E3,9.319E3,8.021E3,3.785E3,3.441E3,1.464E3,1.581E3,3.268E3,6.648E3,2.197E3,3.358E3,6.095E3,4.63E3,2.452E3,1.956E3,7.73E2,1.443E3,9.97E2,2.98E2,1.07E2,9.8E1,1.15E2,8.6E1,7.33E2,2.605E3,1.457E3,1.103E3,1.372E3,1.158E3,6.6E2,7.04E2,9.07E2,3.75E2,4.16E2,3.41E2,3.13E2,1.85E2,2.59E2,1.62E2,1.01E2,2.38E2,1.44E2,1.3E2,4.5E1,6E1,9.8E1,8.3E1,4.7E1,8.7E1,5E1,2.4E1,5.5E1,8.5E1,9.7E1,7.9E1],"tree_param":{"num_deleted":"0","num_feature":"56","num_nodes":"127","size_leaf_vector":"1"}},{"base_weights":[1.3307414E2,-1.1243788E5,5.517295E5,-2.0787484E5,1.1382109E5,4.7413847E5,1.7261145E6,-3.7573297E5,-1.5210803E5,6.355848E4,4.796132E5,3.6270672E5,8.349218E5,1.3585259E6,2.3015085E6,-4.8828922E5,-2.8317475E5,-1.9725755E5,-3.915201E4,-3.9146676E4,1.5682986E5,4.025149E5,1.01224794E6,2.8231362E5,6.13642E5,6.9596894E5,1.1028636E6,1.1005631E6,1.6170675E6,1.9303415E6,2.7585442E6,-5.257893E5,-4.3333353E5,-3.198597E5,-2.3479334E5,-2.3900448E5,-1.3072241E5,-9.282004E4,2.4276355E4,-8.91138E4,6.055788E4,1.0366787E5,2.8029822E5,2.3002695E5,4.8494812E5,1.1576849E6,6.930434E5,1.9837002E5,3.913183E5,5.397387E5,7.69273E5,6.221696E5,9.424191E5,9.30348E5,1.2763352E6,4.855809E4,1.2482635E6,1.4292488E6,1.8113348E6,1.683912E6,2.1212602E6,2.2970452E6,3.3760098E6,-2.876985E4,-2.5089115E4,-2.3055889E4,-1.9649545E4,-1.9490732E4,-1.5350469E4,-1.5380218E4,-1.0717647E4,-1.3381836E4,-9.835187E3,-8.263988E3,-4.751872E3,-6.0748887E3,-2.2033748E3,-4.0386725E2,3.3676855E3,-9.384879E3,-2.9815674E3,-1.6405436E3,5.683551E3,2.6864312E3,8.437664E3,1.200065E4,1.7961639E4,8.94447E3,2.211931E4,2.1748064E4,3.2400238E4,5.6765246E4,1.7553075E5,2.9251578E4,5.1148867E4,6.9884556E3,1.4300003E4,1.60067705E4,2.2428438E4,2.36122E4,3.1468662E4,3.525973E4,4.358641E4,2.7586021E4,3.4723293E4,4.3484977E4,5.405975E4,3.990456E4,4.972584E4,5.945574E4,7.238397E4,5.6811906E4,6.699885E4,6.1249277E4,7.9176945E4,7.6628875E4,1.0035489E5,6.707574E4,8.833778E4,9.855911E4,1.3447334E5,9.770989E4,1.4689903E5,1.501055E5,2.0871498E5],"categories":[],"categories_nodes":[],"categories_segments":[],"categories_sizes":[],"default_left":[0,0,0,0,0,0,0,0,0,0,0,0,0,0,0,0,0,0,0,0,0,0,0,0,0,0,0,0,0,0,0,0,0,0,0,0,0,0,0,0,0,0,0,0,0,0,0,0,0,0,0,0,0,0,0,0,0,0,0,0,0,0,0,0,0,0,0,0,0,0,0,0,0,0,0,0,0,0,0,0,0,0,0,0,0,0,0,0,0,0,0,0,0,0,0,0,0,0,0,0,0,0,0,0,0,0,0,0,0,0,0,0,0,0,0,0,0,0,0,0,0,0,0,0,0],"id":9,"left_children":[1,3,5,7,9,11,13,15,17,19,21,23,25,27,29,31,33,35,37,39,41,43,45,47,49,51,53,55,57,59,61,63,65,67,69,71,73,75,77,79,81,83,85,87,89,91,93,95,97,99,101,103,105,107,109,-1,111,113,115,117,119,121,123,-1,-1,-1,-1,-1,-1,-1,-1,-1,-1,-1,-1,-1,-1,-1,-1,-1,-1,-1,-1,-1,-1,-1,-1,-1,-1,-1,-1,-1,-1,-1,-1,-1,-1,-1,-1,-1,-1,-1,-1,-1,-1,-1,-1,-1,-1,-1,-1,-1,-1,-1,-1,-1,-1,-1,-1,-1,-1,-1,-1,-1,-1],"loss_changes":[6.362807E15,1.8376925E15,1.5817833E15,5.6024976E14,4.6417077E14,6.5472025E14,2.2445633E14,1.5536091E14,2.2913617E14,2.1266034E14,1.2484141E14,2.5098648E14,1.4234944E14,4.2171747E13,6.5583077E13,1.3649809E13,1.4466456E13,8.913104E13,4.3683353E13,5.264467E13,7.633449E13,3.779561E13,1.7070951E13,8.6218314E13,3.4319741E13,4.5501555E13,3.8046297E13,5.1522495E12,9.342359E12,7.4371385E12,4.496267E13,4.4726716E12,2.8866542E12,4.06673E12,5.198135E12,2.3835055E13,1.5248577E13,9.712926E12,8.1983565E12,2.0447597E13,1.7499459E13,2.6429014E13,1.1046589E13,9.303495E12,1.441381E13,9.86356E12,3.7848477E12,2.7330655E13,1.6573071E13,1.211107E13,5.7535113E12,9.563953E12,4.9330384E12,4.8160005E12,8.007497E12,0E0,3.9141245E10,3.4493956E12,5.491552E12,6.6498173E11,5.613858E12,1.8210661E13,1.0451266E13,0E0,0E0,0E0,0E0,0E0,0E0,0E0,0E0,0E0,0E0,0E0,0E0,0E0,0E0,0E0,0E0,0E0,0E0,0E0,0E0,0E0,0E0,0E0,0E0,0E0,0E0,0E0,0E0,0E0,0E0,0E0,0E0,0E0,0E0,0E0,0E0,0E0,0E0,0E0,0E0,0E0,0E0,0E0,0E0,0E0,0E0,0E0,0E0,0E0,0E0,0E0,0E0,0E0,0E0,0E0,0E0,0E0,0E0,0E0,0E0,0E0,0E0],"parents":[2147483647,0,0,1,1,2,2,3,3,4,4,5,5,6,6,7,7,8,8,9,9,10,10,11,11,12,12,13,13,14,14,15,15,16,16,17,17,18,18,19,19,20,20,21,21,22,22,23,23,24,24,25,25,26,26,27,27,28,28,29,29,30,30,31,31,32,32,33,33,34,34,35,35,36,36,37,37,38,38,39,39,40,40,41,41,42,42,43,43,44,44,45,45,46,46,47,47,48,48,49,49,50,50,51,51,52,52,53,53,54,54,56,56,57,57,58,58,59,59,60,60,61,61,62,62],"right_children":[2,4,6,8,10,12,14,16,18,20,22,24,26,28,30,32,34,36,38,40,42,44,46,48,50,52,54,56,58,60,62,64,66,68,70,72,74,76,78,80,82,84,86,88,90,92,94,96,98,100,102,104,106,108,110,-1,112,114,116,118,120,122,124,-1,-1,-1,-1,-1,-1,-1,-1,-1,-1,-1,-1,-1,-1,-1,-1,-1,-1,-1,-1,-1,-1,-1,-1,-1,-1,-1,-1,-1,-1,-1,-1,-1,-1,-1,-1,-1,-1,-1,-1,-1,-1,-1,-1,-1,-1,-1,-1,-1,-1,-1,-1,-1,-1,-1,-1,-1,-1,-1,-1,-1,-1],"split_conditions":[7.272761E-1,9.451286E-2,3.0711887E0,-6.5089536E-1,1.8727866E0,2.2420766E0,3.5222316E0,-9.0737695E-1,5.518216E-3,-4.1030937E-1,4.063446E0,8.5156786E-1,3.2311523E0,4.063446E0,2.7133849E0,-1.1112759E0,-3.9515674E-1,-5.562323E-1,-4.4025788E-1,9.933143E-1,9.321056E-1,-6.00402E-1,-2.3688402E-2,1.3094348E0,1.9146663E0,1.1286178E0,9.321056E-1,1.9985205E0,8.499878E-2,4.063446E0,3.1873338E0,-1.3358378E0,-1.1135536E0,-1.0043488E0,-1.02217E0,-2.7665052E-1,-3.2120347E-1,2.8471676E-1,3.5303128E-1,-1.0370209E0,-1.0696931E0,1.3323669E-1,2.193724E-1,3.0711887E0,2.6040695E0,1.4819199E0,-4.6377292E-1,9.451286E-2,1.1062042E-1,1.404481E0,1.508438E0,2.7813897E-1,2.1433935E0,2.6525292E-1,2.0531912E0,4.855809E4,2.5539474E0,1.9242655E0,2.7133849E0,2.5787632E0,3.4338508E0,4.1280403E0,4.1280403E0,-2.876985E4,-2.5089115E4,-2.3055889E4,-1.9649545E4,-1.9490732E4,-1.5350469E4,-1.5380218E4,-1.0717647E4,-1.3381836E4,-9.835187E3,-8.263988E3,-4.751872E3,-6.0748887E3,-2.2033748E3,-4.0386725E2,3.3676855E3,-9.384879E3,-2.9815674E3,-1.6405436E3,5.683551E3,2.6864312E3,8.437664E3,1.200065E4,1.7961639E4,8.94447E3,2.211931E4,2.1748064E4,3.2400238E4,5.6765246E4,1.7553075E5,2.9251578E4,5.1148867E4,6.9884556E3,1.4300003E4,1.60067705E4,2.2428438E4,2.36122E4,3.1468662E4,3.525973E4,4.358641E4,2.7586021E4,3.4723293E4,4.3484977E4,5.405975E4,3.990456E4,4.972584E4,5.945574E4,7.238397E4,5.6811906E4,6.699885E4,6.1249277E4,7.9176945E4,7.6628875E4,1.0035489E5,6.707574E4,8.833778E4,9.855911E4,1.3447334E5,9.770989E4,1.4689903E5,1.501055E5,2.0871498E5],"split_indices":[5,4,4,5,4,5,5,4,5,5,4,4,5,4,54,5,4,4,4,4,4,5,2,5,4,4,4,5,8,4,9,4,4,5,5,5,5,5,5,5,5,5,5,4,4,0,5,4,4,5,5,4,4,4,4,0,5,5,54,9,10,29,29,0,0,0,0,0,0,0,0,0,0,0,0,0,0,0,0,0,0,0,0,0,0,0,0,0,0,0,0,0,0,0,0,0,0,0,0,0,0,0,0,0,0,0,0,0,0,0,0,0,0,0,0,0,0,0,0,0,0,0,0,0,0],"split_type":[0,0,0,0,0,0,0,0,0,0,0,0,0,0,0,0,0,0,0,0,0,0,0,0,0,0,0,0,0,0,0,0,0,0,0,0,0,0,0,0,0,0,0,0,0,0,0,0,0,0,0,0,0,0,0,0,0,0,0,0,0,0,0,0,0,0,0,0,0,0,0,0,0,0,0,0,0,0,0,0,0,0,0,0,0,0,0,0,0,0,0,0,0,0,0,0,0,0,0,0,0,0,0,0,0,0,0,0,0,0,0,0,0,0,0,0,0,0,0,0,0,0,0,0,0],"sum_hessian":[1.02469E5,8.5102E4,1.7367E4,5.9855E4,2.5247E4,1.6292E4,1.075E3,1.4925E4,4.493E4,2.2198E4,3.049E3,1.2449E4,3.843E3,6.58E2,4.17E2,6.733E3,8.192E3,3.2099E4,1.2831E4,1.0565E4,1.1633E4,2.665E3,3.84E2,9.43E3,3.019E3,2.533E3,1.31E3,3.32E2,3.26E2,2.33E2,1.84E2,3.997E3,2.736E3,4.656E3,3.536E3,1.9722E4,1.2377E4,6.95E3,5.881E3,7.038E3,3.527E3,8.133E3,3.5E3,8.63E2,1.802E3,2.62E2,1.22E2,5.329E3,4.101E3,2.05E3,9.69E2,1.952E3,5.81E2,6.6E2,6.5E2,1.81E2,1.51E2,1.7E2,1.56E2,1.06E2,1.27E2,1.08E2,7.6E1,1.296E3,2.701E3,1.614E3,1.122E3,7.18E2,3.938E3,7.72E2,2.764E3,1.1758E4,7.964E3,6.286E3,6.091E3,4.375E3,2.575E3,3.359E3,2.522E3,1.619E3,5.419E3,1.279E3,2.248E3,4.603E3,3.53E3,2.32E3,1.18E3,6.97E2,1.66E2,1.382E3,4.2E2,2.61E2,1E0,9.4E1,2.8E1,3.195E3,2.134E3,1.831E3,2.27E3,1.173E3,8.77E2,6.01E2,3.68E2,9.93E2,9.59E2,3.86E2,1.95E2,2.2E2,4.4E2,4.36E2,2.14E2,7.4E1,7.7E1,7.7E1,9.3E1,6.8E1,8.8E1,2.4E1,8.2E1,1.04E2,2.3E1,7.3E1,3.5E1,5.5E1,2.1E1],"tree_param":{"num_deleted":"0","num_feature":"56","num_nodes":"125","size_leaf_vector":"1"}},{"base_weights":[4.4188312E2,-1.1130091E5,5.0556438E5,-1.9723986E5,1.12408414E5,4.2571772E5,1.5443359E6,-4.1383094E5,-1.5875417E5,6.305649E4,4.4938988E5,3.1368644E5,7.4081075E5,1.2090385E6,2.141642E6,-4.7796353E5,-3.017589E5,-2.1485884E5,-6.990744E4,-2.9598469E4,1.5465112E5,3.7588666E5,9.6309725E5,2.0508717E5,4.7081956E5,6.2805594E5,1.0300509E6,9.967255E5,1.5302284E6,1.5661821E6,2.4824045E6,-5.273004E5,-4.4972372E5,-3.395238E5,-2.560859E5,-2.4658039E5,-1.6116036E5,-1.2043339E5,-4.0142397E3,-7.615928E4,6.0654816E4,1.0566182E5,2.6817053E5,2.1400403E5,4.49457E5,7.458599E5,1.2327452E6,1.4214869E5,3.075548E5,3.9442588E5,6.108609E5,5.6461925E5,8.4051344E5,9.0702875E5,1.2338636E6,8.889394E5,1.1642581E6,1.3545504E6,1.6938049E6,8.5147516E4,7.3025086E4,2.0026846E6,2.8409745E6,-2.8048654E4,-2.4850562E4,-2.3433092E4,-2.0764592E4,-1.8543896E4,-1.5944564E4,-1.3911211E4,-1.0815169E4,-1.5265851E4,-1.1068125E4,-1.1221888E4,-6.2118726E3,-7.556068E3,-3.302315E3,-2.2709832E3,1.9433182E3,-8.222401E3,-2.263751E3,-1.2911605E3,5.64507E3,2.8657231E3,7.993318E3,1.1137777E4,1.6241716E4,7.624572E3,1.9799879E4,2.056033E4,3.25575E4,3.5819605E4,1.7114248E5,4.8733277E4,7.072817E4,2.0820754E3,8.750905E3,8.268815E3,1.6377015E4,1.6131944E4,2.2922975E4,2.7861145E4,3.657067E4,2.5025025E4,3.1652379E4,3.9272043E4,4.8020656E4,3.8784133E4,4.9363074E4,5.6800258E4,7.039998E4,4.026848E4,4.7692258E4,5.488356E4,6.4040043E4,5.7577996E4,7.481371E4,6.934103E4,1.096589E5,8.277234E4,1.0865654E5,1.2962787E5,1.9444972E5],"categories":[],"categories_nodes":[],"categories_segments":[],"categories_sizes":[],"default_left":[0,0,0,0,0,0,0,0,0,0,0,0,0,0,0,0,0,0,0,0,0,0,0,0,0,0,0,0,0,0,0,0,0,0,0,0,0,0,0,0,0,0,0,0,0,0,0,0,0,0,0,0,0,0,0,0,0,0,0,0,0,0,0,0,0,0,0,0,0,0,0,0,0,0,0,0,0,0,0,0,0,0,0,0,0,0,0,0,0,0,0,0,0,0,0,0,0,0,0,0,0,0,0,0,0,0,0,0,0,0,0,0,0,0,0,0,0,0,0,0,0,0,0],"id":10,"left_children":[1,3,5,7,9,11,13,15,17,19,21,23,25,27,29,31,33,35,37,39,41,43,45,47,49,51,53,55,57,59,61,63,65,67,69,71,73,75,77,79,81,83,85,87,89,91,93,95,97,99,101,103,105,107,109,111,113,115,117,-1,-1,119,121,-1,-1,-1,-1,-1,-1,-1,-1,-1,-1,-1,-1,-1,-1,-1,-1,-1,-1,-1,-1,-1,-1,-1,-1,-1,-1,-1,-1,-1,-1,-1,-1,-1,-1,-1,-1,-1,-1,-1,-1,-1,-1,-1,-1,-1,-1,-1,-1,-1,-1,-1,-1,-1,-1,-1,-1,-1,-1,-1,-1],"loss_changes":[5.7725633E15,1.6100485E15,1.535934E15,5.0426674E14,3.8651867E14,6.071089E14,2.621742E14,6.546295E13,2.5607991E14,1.7207236E14,1.1174485E14,2.1652058E14,1.4650402E14,5.6370506E13,8.906111E13,7.849187E12,5.6481504E12,5.3600252E13,6.620963E13,4.236347E13,5.667404E13,3.0857293E13,2.0812808E13,4.8376565E13,5.525113E13,4.331421E13,3.057359E13,8.246673E12,7.3612384E12,1.0005932E11,4.522641E13,1.8701898E12,2.21674E12,1.0571827E12,1.2688273E12,2.925168E13,2.7300825E13,1.8776624E13,1.5327791E13,1.8125328E13,1.5504794E13,1.8660324E13,7.835648E12,9.052256E12,1.3510927E13,1.3955985E13,6.316756E12,1.5364415E13,8.061167E12,1.5292701E13,1.1419177E13,1.0673866E13,4.165011E12,7.580416E12,6.4607046E12,9.512514E11,1.306274E11,3.081337E12,2.301938E13,0E0,0E0,4.09656E12,3.339525E13,0E0,0E0,0E0,0E0,0E0,0E0,0E0,0E0,0E0,0E0,0E0,0E0,0E0,0E0,0E0,0E0,0E0,0E0,0E0,0E0,0E0,0E0,0E0,0E0,0E0,0E0,0E0,0E0,0E0,0E0,0E0,0E0,0E0,0E0,0E0,0E0,0E0,0E0,0E0,0E0,0E0,0E0,0E0,0E0,0E0,0E0,0E0,0E0,0E0,0E0,0E0,0E0,0E0,0E0,0E0,0E0,0E0,0E0,0E0,0E0],"parents":[2147483647,0,0,1,1,2,2,3,3,4,4,5,5,6,6,7,7,8,8,9,9,10,10,11,11,12,12,13,13,14,14,15,15,16,16,17,17,18,18,19,19,20,20,21,21,22,22,23,23,24,24,25,25,26,26,27,27,28,28,29,29,30,30,31,31,32,32,33,33,34,34,35,35,36,36,37,37,38,38,39,39,40,40,41,41,42,42,43,43,44,44,45,45,46,46,47,47,48,48,49,49,50,50,51,51,52,52,53,53,54,54,55,55,56,56,57,57,58,58,61,61,62,62],"right_children":[2,4,6,8,10,12,14,16,18,20,22,24,26,28,30,32,34,36,38,40,42,44,46,48,50,52,54,56,58,60,62,64,66,68,70,72,74,76,78,80,82,84,86,88,90,92,94,96,98,100,102,104,106,108,110,112,114,116,118,-1,-1,120,122,-1,-1,-1,-1,-1,-1,-1,-1,-1,-1,-1,-1,-1,-1,-1,-1,-1,-1,-1,-1,-1,-1,-1,-1,-1,-1,-1,-1,-1,-1,-1,-1,-1,-1,-1,-1,-1,-1,-1,-1,-1,-1,-1,-1,-1,-1,-1,-1,-1,-1,-1,-1,-1,-1,-1,-1,-1,-1,-1,-1],"split_conditions":[6.589616E-1,1.4605702E-1,2.8102462E0,-9.8469317E-1,1.8727866E0,2.0698051E0,3.5222316E0,-7.81584E-1,-1.7566381E-1,-4.04369E-1,4.063446E0,3.812273E-1,3.2311523E0,4.063446E0,4.063446E0,-1.2271136E0,-3.8357762E-1,-4.5314392E-1,-4.499224E-1,1.0190864E0,9.933143E-1,-6.5683573E-1,1.1770331E0,1.2262692E0,1.2574781E0,1.0384154E0,1.1286178E0,2.0698051E0,2.7133849E0,-9.8975927E-1,2.7133849E0,-1.3358378E0,-1.1779838E0,-5.914914E-1,-1.6378301E-1,-5.914914E-1,-6.5089536E-1,1.3323669E-1,1.5402807E-1,-1.0043488E0,-1.0548421E0,7.383275E-2,6.492216E-2,2.8102462E0,2.8102462E0,1.4232105E0,2.5256648E0,-4.0482128E-1,-3.3072653E-1,1.2262692E0,2.1433935E0,2.7813897E-1,1.9726535E0,4.134424E-1,3.1873338E0,1.3569579E0,2.8390863E0,1.9242655E0,1.6831307E0,8.5147516E4,7.3025086E4,3.1873338E0,3.809738E-1,-2.8048654E4,-2.4850562E4,-2.3433092E4,-2.0764592E4,-1.8543896E4,-1.5944564E4,-1.3911211E4,-1.0815169E4,-1.5265851E4,-1.1068125E4,-1.1221888E4,-6.2118726E3,-7.556068E3,-3.302315E3,-2.2709832E3,1.9433182E3,-8.222401E3,-2.263751E3,-1.2911605E3,5.64507E3,2.8657231E3,7.993318E3,1.1137777E4,1.6241716E4,7.624572E3,1.9799879E4,2.056033E4,3.25575E4,3.5819605E4,1.7114248E5,4.8733277E4,7.072817E4,2.0820754E3,8.750905E3,8.268815E3,1.6377015E4,1.6131944E4,2.2922975E4,2.7861145E4,3.657067E4,2.5025025E4,3.1652379E4,3.9272043E4,4.8020656E4,3.8784133E4,4.9363074E4,5.6800258E4,7.039998E4,4.026848E4,4.7692258E4,5.488356E4,6.4040043E4,5.7577996E4,7.481371E4,6.934103E4,1.096589E5,8.277234E4,1.0865654E5,1.2962787E5,1.9444972E5],"split_indices":[5,4,4,4,4,5,5,5,5,5,4,4,5,4,4,5,5,4,4,4,4,5,12,5,4,4,4,5,54,45,54,4,4,5,5,5,5,5,5,5,5,5,5,4,4,0,54,4,4,5,4,4,4,4,9,5,5,5,9,0,0,9,8,0,0,0,0,0,0,0,0,0,0,0,0,0,0,0,0,0,0,0,0,0,0,0,0,0,0,0,0,0,0,0,0,0,0,0,0,0,0,0,0,0,0,0,0,0,0,0,0,0,0,0,0,0,0,0,0,0,0,0,0],"split_type":[0,0,0,0,0,0,0,0,0,0,0,0,0,0,0,0,0,0,0,0,0,0,0,0,0,0,0,0,0,0,0,0,0,0,0,0,0,0,0,0,0,0,0,0,0,0,0,0,0,0,0,0,0,0,0,0,0,0,0,0,0,0,0,0,0,0,0,0,0,0,0,0,0,0,0,0,0,0,0,0,0,0,0,0,0,0,0,0,0,0,0,0,0,0,0,0,0,0,0,0,0,0,0,0,0,0,0,0,0,0,0,0,0,0,0,0,0,0,0,0,0,0,0],"sum_hessian":[1.02269E5,8.3744E4,1.8525E4,6.0502E4,2.3242E4,1.7204E4,1.321E3,9.127E3,5.1375E4,2.0274E4,2.968E3,1.2693E4,4.511E3,8.48E2,4.73E2,5.803E3,3.324E3,3.1489E4,1.9886E4,1.0079E4,1.0195E4,2.598E3,3.7E2,7.507E3,5.186E3,3.248E3,1.263E3,5.13E2,3.35E2,1.78E2,2.95E2,2.106E3,3.697E3,1.816E3,1.508E3,1.9793E4,1.1696E4,1.1255E4,8.631E3,6.649E3,3.43E3,7.123E3,3.072E3,8.13E2,1.785E3,2.07E2,1.63E2,4.652E3,2.855E3,3.358E3,1.828E3,2.504E3,7.44E2,7.91E2,4.72E2,3.16E2,1.97E2,1.66E2,1.69E2,7.1E1,1.07E2,1.29E2,1.66E2,9.89E2,1.117E3,2.377E3,1.32E3,7.14E2,1.102E3,9.65E2,5.43E2,5.942E3,1.3851E4,4.308E3,7.388E3,7.194E3,4.061E3,4.391E3,4.24E3,1.722E3,4.927E3,1.292E3,2.138E3,3.766E3,3.357E3,1.708E3,1.364E3,6.09E2,2.04E2,1.503E3,2.82E2,2.06E2,1E0,7E1,9.3E1,1.147E3,3.505E3,3.53E2,2.502E3,1.586E3,1.772E3,1.269E3,5.59E2,1.297E3,1.207E3,5.15E2,2.29E2,3.04E2,4.87E2,3.07E2,1.65E2,1.44E2,1.72E2,1.32E2,6.5E1,7.2E1,9.4E1,1.07E2,6.2E1,4.6E1,8.3E1,1.37E2,2.9E1],"tree_param":{"num_deleted":"0","num_feature":"56","num_nodes":"123","size_leaf_vector":"1"}},{"base_weights":[3.9606128E2,-1.05586836E5,4.815152E5,-1.9047797E5,9.852285E4,3.9825966E5,1.3947968E6,-3.961693E5,-1.5390764E5,6.0343555E4,4.9032712E5,2.86858E5,6.82297E5,1.0453107E6,1.9020302E6,-4.5121222E5,-2.7890278E5,-1.9933689E5,-6.107038E4,-3.5208895E4,1.3893197E5,4.0385038E5,9.115994E5,1.9283678E5,4.355989E5,6.0023675E5,1.0311834E6,8.829291E5,1.4060988E6,1.4566491E6,2.257218E6,-4.937803E5,-4.2055497E5,-3.1287566E5,-2.488615E5,-2.4177719E5,-1.5021792E5,-1.16349375E5,-9.074928E3,-8.4987086E4,5.7752367E4,8.9945914E4,2.7313566E5,2.252962E5,4.6263547E5,1.0546976E6,5.9192706E5,1.2852234E5,2.7787322E5,3.609357E5,5.4625856E5,5.249698E5,7.57851E5,9.4131544E5,1.26032E6,7.777038E5,9.9074556E5,1.5137426E6,1.1388098E6,6.0947844E4,1.5183749E6,1.8764798E6,2.5443755E6,-2.7100041E4,-2.3562334E4,-2.1863674E4,-1.9369795E4,-1.9359402E4,-1.5059133E4,-1.5789171E4,-1.158248E4,-1.3990086E4,-1.0483982E4,-9.193355E3,-5.534026E3,-7.158561E3,-3.3217043E3,-2.1580881E3,1.607261E3,-8.316332E3,-2.8958523E3,-1.388194E3,5.149378E3,1.8952051E3,6.938833E3,1.1705116E4,1.7032422E4,8.173625E3,1.8673252E4,2.1377342E4,3.2662639E4,2.7446951E4,5.6766477E4,2.4270713E4,3.887631E4,2.159254E3,8.1245483E3,7.5126104E3,1.4933968E4,1.4774002E4,2.089925E4,2.4959266E4,3.2302832E4,2.3237193E4,3.0173785E4,3.5135918E4,4.3454824E4,3.7252953E4,4.971454E4,5.8885707E4,7.611286E4,3.7345062E4,4.4815984E4,4.746E4,5.5832094E4,5.5133832E4,8.137187E4,4.995237E4,6.465609E4,6.96114E4,8.371568E4,8.781977E4,1.2243745E5,1.1170196E5,1.6373902E5],"categories":[],"categories_nodes":[],"categories_segments":[],"categories_sizes":[],"default_left":[0,0,0,0,0,0,0,0,0,0,0,0,0,0,0,0,0,0,0,0,0,0,0,0,0,0,0,0,0,0,0,0,0,0,0,0,0,0,0,0,0,0,0,0,0,0,0,0,0,0,0,0,0,0,0,0,0,0,0,0,0,0,0,0,0,0,0,0,0,0,0,0,0,0,0,0,0,0,0,0,0,0,0,0,0,0,0,0,0,0,0,0,0,0,0,0,0,0,0,0,0,0,0,0,0,0,0,0,0,0,0,0,0,0,0,0,0,0,0,0,0,0,0,0,0],"id":11,"left_children":[1,3,5,7,9,11,13,15,17,19,21,23,25,27,29,31,33,35,37,39,41,43,45,47,49,51,53,55,57,59,61,63,65,67,69,71,73,75,77,79,81,83,85,87,89,91,93,95,97,99,101,103,105,107,109,111,113,115,117,-1,119,121,123,-1,-1,-1,-1,-1,-1,-1,-1,-1,-1,-1,-1,-1,-1,-1,-1,-1,-1,-1,-1,-1,-1,-1,-1,-1,-1,-1,-1,-1,-1,-1,-1,-1,-1,-1,-1,-1,-1,-1,-1,-1,-1,-1,-1,-1,-1,-1,-1,-1,-1,-1,-1,-1,-1,-1,-1,-1,-1,-1,-1,-1,-1],"loss_changes":[5.2081085E15,1.4503146E15,1.4013912E15,4.4461394E14,3.6776275E14,5.345264E14,2.7100895E14,5.746948E13,2.1167813E14,1.6825112E14,7.915907E13,1.6969147E14,1.35658555E14,5.2305454E13,9.589964E13,7.7151034E12,2.83389E12,7.021748E13,4.7404053E13,4.679761E13,8.079753E13,1.8925606E13,1.6346914E13,4.0654164E13,3.8643566E13,4.53464E13,1.7449378E13,6.4109433E12,6.3899047E12,2.2719706E12,3.316359E13,2.5001407E12,1.7908671E12,1.0434086E12,1.6765136E12,2.2005466E13,2.0765865E13,1.0693017E13,1.1944435E13,1.4491857E13,1.3646508E13,2.2886237E13,8.5823177E12,4.0702617E12,8.83713E12,9.775748E12,1.9355119E12,1.2278057E13,8.4600454E12,1.0369561E13,8.5657754E12,1.2074093E13,7.0190503E12,6.0586554E12,3.6598826E12,5.1797977E11,5.562654E11,7.459184E12,5.413001E11,0E0,1.9769936E12,6.2133077E12,3.6884776E13,0E0,0E0,0E0,0E0,0E0,0E0,0E0,0E0,0E0,0E0,0E0,0E0,0E0,0E0,0E0,0E0,0E0,0E0,0E0,0E0,0E0,0E0,0E0,0E0,0E0,0E0,0E0,0E0,0E0,0E0,0E0,0E0,0E0,0E0,0E0,0E0,0E0,0E0,0E0,0E0,0E0,0E0,0E0,0E0,0E0,0E0,0E0,0E0,0E0,0E0,0E0,0E0,0E0,0E0,0E0,0E0,0E0,0E0,0E0,0E0,0E0,0E0],"parents":[2147483647,0,0,1,1,2,2,3,3,4,4,5,5,6,6,7,7,8,8,9,9,10,10,11,11,12,12,13,13,14,14,15,15,16,16,17,17,18,18,19,19,20,20,21,21,22,22,23,23,24,24,25,25,26,26,27,27,28,28,29,29,30,30,31,31,32,32,33,33,34,34,35,35,36,36,37,37,38,38,39,39,40,40,41,41,42,42,43,43,44,44,45,45,46,46,47,47,48,48,49,49,50,50,51,51,52,52,53,53,54,54,55,55,56,56,57,57,58,58,60,60,61,61,62,62],"right_children":[2,4,6,8,10,12,14,16,18,20,22,24,26,28,30,32,34,36,38,40,42,44,46,48,50,52,54,56,58,60,62,64,66,68,70,72,74,76,78,80,82,84,86,88,90,92,94,96,98,100,102,104,106,108,110,112,114,116,118,-1,120,122,124,-1,-1,-1,-1,-1,-1,-1,-1,-1,-1,-1,-1,-1,-1,-1,-1,-1,-1,-1,-1,-1,-1,-1,-1,-1,-1,-1,-1,-1,-1,-1,-1,-1,-1,-1,-1,-1,-1,-1,-1,-1,-1,-1,-1,-1,-1,-1,-1,-1,-1,-1,-1,-1,-1,-1,-1,-1,-1,-1,-1,-1,-1],"split_conditions":[6.589616E-1,9.451286E-2,2.6040695E0,-8.677197E-1,2.0531912E0,1.9985205E0,3.0262086E0,-8.2361764E-1,-1.0437908E-1,-4.6377292E-1,4.063446E0,4.134424E-1,3.5222316E0,4.063446E0,4.063446E0,-1.2617431E0,-3.9515674E-1,-6.0777646E-1,-5.4656774E-1,1.0190864E0,1.04808E0,-8.11286E-1,8.25484E-1,1.1490442E0,1.1608329E0,7.323719E-1,1.3960031E0,1.6123948E0,-2.3688402E-2,3.5222316E0,2.7133849E0,-1.3340406E0,-1.0696931E0,-1.1825607E0,-1.1825607E0,-4.1921997E-1,-4.1624978E-1,1.8670024E-1,2.193724E-1,-1.0370209E0,-1.1261269E0,-3.392375E-3,1.3323669E-1,3.0711887E0,3.0711887E0,-6.6885895E-1,-9.8949784E-1,-3.5327712E-1,-3.21062E-1,1.1876566E0,1.9726535E0,2.5539474E0,2.8390863E0,2.6525292E-1,3.0707705E0,3.4416623E0,3.4416623E0,1.892399E0,6.867739E-2,6.0947844E4,1.8239601E0,3.4338508E0,4.1280403E0,-2.7100041E4,-2.3562334E4,-2.1863674E4,-1.9369795E4,-1.9359402E4,-1.5059133E4,-1.5789171E4,-1.158248E4,-1.3990086E4,-1.0483982E4,-9.193355E3,-5.534026E3,-7.158561E3,-3.3217043E3,-2.1580881E3,1.607261E3,-8.316332E3,-2.8958523E3,-1.388194E3,5.149378E3,1.8952051E3,6.938833E3,1.1705116E4,1.7032422E4,8.173625E3,1.8673252E4,2.1377342E4,3.2662639E4,2.7446951E4,5.6766477E4,2.4270713E4,3.887631E4,2.159254E3,8.1245483E3,7.5126104E3,1.4933968E4,1.4774002E4,2.089925E4,2.4959266E4,3.2302832E4,2.3237193E4,3.0173785E4,3.5135918E4,4.3454824E4,3.7252953E4,4.971454E4,5.8885707E4,7.611286E4,3.7345062E4,4.4815984E4,4.746E4,5.5832094E4,5.5133832E4,8.137187E4,4.995237E4,6.465609E4,6.96114E4,8.371568E4,8.781977E4,1.2243745E5,1.1170196E5,1.6373902E5],"split_indices":[5,4,4,5,4,5,5,4,5,5,4,4,5,4,4,4,4,4,4,4,4,5,2,5,4,4,4,5,2,5,54,5,5,5,5,5,5,5,5,5,5,5,5,4,4,1,5,4,4,5,4,5,5,4,10,4,4,54,8,0,54,10,29,0,0,0,0,0,0,0,0,0,0,0,0,0,0,0,0,0,0,0,0,0,0,0,0,0,0,0,0,0,0,0,0,0,0,0,0,0,0,0,0,0,0,0,0,0,0,0,0,0,0,0,0,0,0,0,0,0,0,0,0,0,0],"split_type":[0,0,0,0,0,0,0,0,0,0,0,0,0,0,0,0,0,0,0,0,0,0,0,0,0,0,0,0,0,0,0,0,0,0,0,0,0,0,0,0,0,0,0,0,0,0,0,0,0,0,0,0,0,0,0,0,0,0,0,0,0,0,0,0,0,0,0,0,0,0,0,0,0,0,0,0,0,0,0,0,0,0,0,0,0,0,0,0,0,0,0,0,0,0,0,0,0,0,0,0,0,0,0,0,0,0,0,0,0,0,0,0,0,0,0,0,0,0,0,0,0,0,0,0,0],"sum_hessian":[1.02137E5,8.37E4,1.8437E4,5.9114E4,2.4586E4,1.6898E4,1.539E3,8.922E3,5.0192E4,2.2404E4,2.182E3,1.2139E4,4.759E3,9.13E2,6.26E2,6.07E3,2.852E3,3.37E4,1.6492E4,1.0111E4,1.2293E4,1.812E3,3.7E2,7.439E3,4.7E3,3.855E3,9.04E2,6.32E2,2.81E2,2.8E2,3.46E2,2.535E3,3.535E3,1.334E3,1.518E3,1.8077E4,1.5623E4,7.993E3,8.499E3,6.585E3,3.526E3,9.007E3,3.286E3,4.5E2,1.362E3,2.54E2,1.16E2,4.237E3,3.202E3,2.809E3,1.891E3,2.612E3,1.243E3,6.53E2,2.51E2,3.24E2,3.08E2,1.97E2,8.4E1,6.2E1,2.18E2,1.52E2,1.94E2,8E2,1.735E3,2.342E3,1.193E3,1.77E2,1.157E3,3.07E2,1.211E3,8.271E3,9.806E3,8.438E3,7.185E3,5.198E3,2.795E3,4.652E3,3.847E3,1.643E3,4.942E3,1.22E3,2.306E3,4.361E3,4.646E3,2.085E3,1.201E3,3.19E2,1.31E2,1.153E3,2.09E2,3.6E1,2.18E2,7.6E1,4E1,1.207E3,3.03E3,4.5E2,2.752E3,1.311E3,1.498E3,1.289E3,6.02E2,1.482E3,1.13E3,8.36E2,4.07E2,1.42E2,5.11E2,1.95E2,5.6E1,2.63E2,6.1E1,2.38E2,7E1,4.5E1,1.52E2,4.8E1,3.6E1,1.26E2,9.2E1,1.29E2,2.3E1,1.39E2,5.5E1],"tree_param":{"num_deleted":"0","num_feature":"56","num_nodes":"125","size_leaf_vector":"1"}},{"base_weights":[3.704713E2,-1.0257272E5,4.437844E5,-1.7811116E5,1.0175178E5,3.6751697E5,1.3003761E6,-3.742734E5,-1.4357175E5,6.3349105E4,4.6091512E5,2.6001564E5,6.3286456E5,1.02054356E6,1.917805E6,-4.288095E5,-2.6995344E5,-1.945859E5,-6.700402E4,-3.070121E4,1.3835366E5,3.740098E5,8.649674E5,1.7117E5,4.0597772E5,5.449974E5,9.1569506E5,8.681246E5,1.3561829E6,1.4246926E6,2.2406028E6,-4.6947856E5,-3.989618E5,-2.9767934E5,-2.2497162E5,-2.2290272E5,-1.414686E5,-1.1019235E5,-3.2366084E3,-7.420267E4,5.909673E4,9.062698E4,2.5730245E5,2.0050212E5,4.260551E5,1.014586E6,5.442754E5,1.149146E5,2.5263773E5,3.3958266E5,5.2186847E5,4.8709775E5,7.224184E5,8.439945E5,1.1809109E6,7.6577406E5,1.02549925E6,1.1478772E6,1.5326516E6,1.336087E6,1.584075E6,2.0076046E6,2.8213462E6,-2.5616438E4,-2.2505922E4,-2.0784732E4,-1.8255992E4,-1.61659375E4,-1.3921495E4,-1.1724437E4,-8.119642E3,-1.4015557E4,-1.011764E4,-1.0063904E4,-5.4183623E3,-6.833143E3,-3.0475962E3,-2.1290127E3,1.5429209E3,-8.1679595E3,-2.585244E3,-1.4661786E3,5.2069907E3,2.2048884E3,7.0106304E3,1.0849378E4,1.5696511E4,6.9750273E3,1.718444E4,1.9629252E4,3.0687943E4,4.96476E4,1.6544475E5,2.3648232E4,3.4660816E4,1.9261615E3,7.484886E3,7.318281E3,1.3808546E4,1.4002953E4,1.9624145E4,2.383735E4,3.0264682E4,2.1658242E4,2.7690203E4,3.2921105E4,4.031745E4,3.564819E4,4.5440047E4,5.454504E4,6.755794E4,3.4312363E4,4.1070207E4,4.726263E4,5.51532E4,5.058182E4,6.3819426E4,6.4134402E4,8.364814E4,5.583775E4,7.044942E4,7.130418E4,9.341257E4,8.369728E4,1.1181385E5,9.885533E4,1.6478723E5],"categories":[],"categories_nodes":[],"categories_segments":[],"categories_sizes":[],"default_left":[0,0,0,0,0,0,0,0,0,0,0,0,0,0,0,0,0,0,0,0,0,0,0,0,0,0,0,0,0,0,0,0,0,0,0,0,0,0,0,0,0,0,0,0,0,0,0,0,0,0,0,0,0,0,0,0,0,0,0,0,0,0,0,0,0,0,0,0,0,0,0,0,0,0,0,0,0,0,0,0,0,0,0,0,0,0,0,0,0,0,0,0,0,0,0,0,0,0,0,0,0,0,0,0,0,0,0,0,0,0,0,0,0,0,0,0,0,0,0,0,0,0,0,0,0,0,0],"id":12,"left_children":[1,3,5,7,9,11,13,15,17,19,21,23,25,27,29,31,33,35,37,39,41,43,45,47,49,51,53,55,57,59,61,63,65,67,69,71,73,75,77,79,81,83,85,87,89,91,93,95,97,99,101,103,105,107,109,111,113,115,117,119,121,123,125,-1,-1,-1,-1,-1,-1,-1,-1,-1,-1,-1,-1,-1,-1,-1,-1,-1,-1,-1,-1,-1,-1,-1,-1,-1,-1,-1,-1,-1,-1,-1,-1,-1,-1,-1,-1,-1,-1,-1,-1,-1,-1,-1,-1,-1,-1,-1,-1,-1,-1,-1,-1,-1,-1,-1,-1,-1,-1,-1,-1,-1,-1,-1,-1],"loss_changes":[4.6771174E15,1.2835083E15,1.2607842E15,4.1129654E14,3.0956477E14,5.05559E14,2.706844E14,5.1593563E13,2.016361E14,1.4305644E14,7.580426E13,1.6357484E14,1.26517254E14,5.448233E13,7.496302E13,7.055893E12,3.8279232E12,4.6568854E13,5.6853396E13,3.5153645E13,6.4024943E13,1.6042609E13,1.7824718E13,3.592918E13,3.655668E13,3.973167E13,2.2012781E13,1.13114E13,1.066541E13,6.655857E11,3.4252767E13,1.8599557E12,1.8006986E12,8.6203014E11,6.73622E11,2.3782308E13,2.1312248E13,1.6034153E13,1.1184755E13,1.2150865E13,1.1700313E13,1.8573536E13,7.305773E12,3.5681846E12,8.3848667E12,9.619552E12,9.891511E11,1.2331283E13,7.972533E12,9.456176E12,6.249949E12,1.03553E13,4.614741E12,7.470022E12,2.4336694E12,1.466983E12,7.8101296E11,1.4926018E12,4.167192E12,5.531448E11,2.5405738E11,1.2584523E13,2.6325465E13,0E0,0E0,0E0,0E0,0E0,0E0,0E0,0E0,0E0,0E0,0E0,0E0,0E0,0E0,0E0,0E0,0E0,0E0,0E0,0E0,0E0,0E0,0E0,0E0,0E0,0E0,0E0,0E0,0E0,0E0,0E0,0E0,0E0,0E0,0E0,0E0,0E0,0E0,0E0,0E0,0E0,0E0,0E0,0E0,0E0,0E0,0E0,0E0,0E0,0E0,0E0,0E0,0E0,0E0,0E0,0E0,0E0,0E0,0E0,0E0,0E0,0E0,0E0,0E0],"parents":[2147483647,0,0,1,1,2,2,3,3,4,4,5,5,6,6,7,7,8,8,9,9,10,10,11,11,12,12,13,13,14,14,15,15,16,16,17,17,18,18,19,19,20,20,21,21,22,22,23,23,24,24,25,25,26,26,27,27,28,28,29,29,30,30,31,31,32,32,33,33,34,34,35,35,36,36,37,37,38,38,39,39,40,40,41,41,42,42,43,43,44,44,45,45,46,46,47,47,48,48,49,49,50,50,51,51,52,52,53,53,54,54,55,55,56,56,57,57,58,58,59,59,60,60,61,61,62,62],"right_children":[2,4,6,8,10,12,14,16,18,20,22,24,26,28,30,32,34,36,38,40,42,44,46,48,50,52,54,56,58,60,62,64,66,68,70,72,74,76,78,80,82,84,86,88,90,92,94,96,98,100,102,104,106,108,110,112,114,116,118,120,122,124,126,-1,-1,-1,-1,-1,-1,-1,-1,-1,-1,-1,-1,-1,-1,-1,-1,-1,-1,-1,-1,-1,-1,-1,-1,-1,-1,-1,-1,-1,-1,-1,-1,-1,-1,-1,-1,-1,-1,-1,-1,-1,-1,-1,-1,-1,-1,-1,-1,-1,-1,-1,-1,-1,-1,-1,-1,-1,-1,-1,-1,-1,-1,-1,-1],"split_conditions":[6.144086E-1,1.7182912E-1,2.6040695E0,-9.8469317E-1,2.0531912E0,1.9242655E0,3.5222316E0,-7.251503E-1,-1.9348499E-1,-5.083259E-1,4.063446E0,4.134424E-1,3.2311523E0,4.063446E0,4.063446E0,-1.1974117E0,-3.2417366E-1,-4.112643E-1,-4.112643E-1,1.0867381E0,1.0867381E0,-9.4494486E-1,8.25484E-1,1.1104316E0,1.2220416E0,9.610992E-1,1.5119776E0,1.9985205E0,1.6717988E0,2.0463064E0,2.7920267E-1,-1.3815638E0,-1.1586547E0,-5.3208745E-1,7.383275E-2,-6.360444E-1,-6.746569E-1,1.243261E-1,9.1653936E-2,-1.1261269E0,-1.1825607E0,-1.8243361E-2,4.413078E-2,3.0711887E0,3.0711887E0,1.4819199E0,-9.8949784E-1,-3.3072653E-1,-2.3730272E-1,1.1490442E0,1.9726535E0,2.44405E0,1.6505024E0,4.134424E-1,3.1873338E0,1.1490442E0,2.5539474E0,8.499878E-2,2.3732758E0,2.923237E0,2.7395177E0,1.9940803E0,2.7133849E0,-2.5616438E4,-2.2505922E4,-2.0784732E4,-1.8255992E4,-1.61659375E4,-1.3921495E4,-1.1724437E4,-8.119642E3,-1.4015557E4,-1.011764E4,-1.0063904E4,-5.4183623E3,-6.833143E3,-3.0475962E3,-2.1290127E3,1.5429209E3,-8.1679595E3,-2.585244E3,-1.4661786E3,5.2069907E3,2.2048884E3,7.0106304E3,1.0849378E4,1.5696511E4,6.9750273E3,1.718444E4,1.9629252E4,3.0687943E4,4.96476E4,1.6544475E5,2.3648232E4,3.4660816E4,1.9261615E3,7.484886E3,7.318281E3,1.3808546E4,1.4002953E4,1.9624145E4,2.383735E4,3.0264682E4,2.1658242E4,2.7690203E4,3.2921105E4,4.031745E4,3.564819E4,4.5440047E4,5.454504E4,6.755794E4,3.4312363E4,4.1070207E4,4.726263E4,5.51532E4,5.058182E4,6.3819426E4,6.4134402E4,8.364814E4,5.583775E4,7.044942E4,7.130418E4,9.341257E4,8.369728E4,1.1181385E5,9.885533E4,1.6478723E5],"split_indices":[5,4,4,4,4,5,5,5,5,5,4,4,5,4,4,5,5,4,4,4,4,5,2,5,4,4,4,5,5,54,8,5,4,5,5,5,5,5,5,5,5,5,5,4,4,0,5,4,4,5,4,5,4,4,9,5,5,8,54,9,9,42,54,0,0,0,0,0,0,0,0,0,0,0,0,0,0,0,0,0,0,0,0,0,0,0,0,0,0,0,0,0,0,0,0,0,0,0,0,0,0,0,0,0,0,0,0,0,0,0,0,0,0,0,0,0,0,0,0,0,0,0,0,0,0,0,0],"split_type":[0,0,0,0,0,0,0,0,0,0,0,0,0,0,0,0,0,0,0,0,0,0,0,0,0,0,0,0,0,0,0,0,0,0,0,0,0,0,0,0,0,0,0,0,0,0,0,0,0,0,0,0,0,0,0,0,0,0,0,0,0,0,0,0,0,0,0,0,0,0,0,0,0,0,0,0,0,0,0,0,0,0,0,0,0,0,0,0,0,0,0,0,0,0,0,0,0,0,0,0,0,0,0,0,0,0,0,0,0,0,0,0,0,0,0,0,0,0,0,0,0,0,0,0,0,0,0],"sum_hessian":[1.02462E5,8.3157E4,1.9305E4,6.0712E4,2.2445E4,1.7728E4,1.577E3,9.088E3,5.1624E4,2.0278E4,2.167E3,1.2618E4,5.11E3,1.087E3,4.9E2,5.966E3,3.122E3,3.0981E4,2.0643E4,8.997E3,1.1281E4,1.785E3,3.82E2,7.845E3,4.773E3,3.901E3,1.209E3,7.5E2,3.37E2,1.96E2,2.94E2,2.519E3,3.447E3,1.928E3,1.194E3,2.0206E4,1.0775E4,1.2307E4,8.336E3,6.061E3,2.936E3,8.052E3,3.229E3,4.13E2,1.372E3,2.59E2,1.23E2,4.642E3,3.203E3,3.037E3,1.736E3,2.944E3,9.57E2,9.55E2,2.54E2,4.58E2,2.92E2,1.58E2,1.79E2,1.32E2,6.4E1,2.13E2,8.1E1,7.76E2,1.743E3,2.299E3,1.148E3,8.2E2,1.108E3,1.034E3,1.6E2,5.323E3,1.4883E4,3.837E3,6.938E3,8.003E3,4.304E3,3.87E3,4.466E3,1.22E3,4.841E3,9.91E2,1.945E3,4.155E3,3.897E3,1.889E3,1.34E3,2.91E2,1.22E2,1.167E3,2.05E2,2.58E2,1E0,8.6E1,3.7E1,1.453E3,3.189E3,5.82E2,2.621E3,1.432E3,1.605E3,1.131E3,6.05E2,1.632E3,1.312E3,5.48E2,4.09E2,3.2E2,6.35E2,1.71E2,8.3E1,1.94E2,2.64E2,1.5E2,1.42E2,8.1E1,7.7E1,6.8E1,1.11E2,3.7E1,9.5E1,4.5E1,1.9E1,9E1,1.23E2,3.1E1,5E1],"tree_param":{"num_deleted":"0","num_feature":"56","num_nodes":"127","size_leaf_vector":"1"}},{"base_weights":[2.58133E2,-7.940394E4,5.2516856E5,-1.8562716E5,6.880417E4,4.5841566E5,1.60844E6,-3.5158988E5,-1.4584117E5,2.431118E4,3.4289762E5,3.8372275E5,8.274302E5,1.229574E6,2.0009476E6,-4.0243447E5,-2.5808728E5,-1.7857619E5,-4.353347E4,-5.998294E4,1.0423347E5,2.867892E5,7.536266E5,3.104217E5,5.808705E5,7.238398E5,1.0792236E6,9.894891E5,1.3376374E6,1.6380366E6,2.3866378E6,-4.3729538E5,-3.6717828E5,-2.860534E5,-2.343076E5,-2.2820794E5,-1.5189586E5,-7.171464E4,2.1249602E4,-1.1021178E5,6.204689E3,5.459819E4,1.863165E5,1.8264811E5,4.0808462E5,4.633585E5,8.6921206E5,2.4262766E5,4.2033956E5,5.1811353E5,7.35947E5,6.21242E5,8.526537E5,9.177809E5,1.1720802E6,4.4136934E4,5.4968562E4,1.0489168E6,1.4436974E6,6.826224E4,1.7682229E6,1.9173358E6,2.993809E6,-2.3812303E4,-2.0673697E4,-1.9334553E4,-1.6762346E4,-1.7661129E4,-1.3734622E4,-1.3322167E4,-1.0970503E4,-1.2810322E4,-9.691714E3,-8.939942E3,-5.907099E3,-6.247659E3,-2.5152668E3,-2.030458E3,1.9825787E3,-9.168287E3,-4.1120034E3,-2.9635876E3,2.3715427E3,4.8475607E2,5.967892E3,7.244721E3,1.2687115E4,4.3575576E3,1.2420132E4,1.7189463E4,2.414535E4,2.0694535E4,2.7847797E4,3.5581273E4,5.8614355E4,8.535776E3,1.4434588E4,1.7964873E4,2.357307E4,2.2560877E4,2.9765691E4,3.3297773E4,4.1035797E4,2.7859213E4,3.4887973E4,3.899283E4,5.0796137E4,4.215406E4,5.0792242E4,5.3289676E4,6.3645062E4,5.752747E4,4.256704E4,7.763643E4,5.7781383E4,7.413612E4,1.0589345E5,8.029469E4,1.22736516E5,1.3519772E5,1.9739994E5],"categories":[],"categories_nodes":[],"categories_segments":[],"categories_sizes":[],"default_left":[0,0,0,0,0,0,0,0,0,0,0,0,0,0,0,0,0,0,0,0,0,0,0,0,0,0,0,0,0,0,0,0,0,0,0,0,0,0,0,0,0,0,0,0,0,0,0,0,0,0,0,0,0,0,0,0,0,0,0,0,0,0,0,0,0,0,0,0,0,0,0,0,0,0,0,0,0,0,0,0,0,0,0,0,0,0,0,0,0,0,0,0,0,0,0,0,0,0,0,0,0,0,0,0,0,0,0,0,0,0,0,0,0,0,0,0,0,0,0,0,0],"id":13,"left_children":[1,3,5,7,9,11,13,15,17,19,21,23,25,27,29,31,33,35,37,39,41,43,45,47,49,51,53,55,57,59,61,63,65,67,69,71,73,75,77,79,81,83,85,87,89,91,93,95,97,99,101,103,105,107,109,-1,-1,111,113,-1,115,117,119,-1,-1,-1,-1,-1,-1,-1,-1,-1,-1,-1,-1,-1,-1,-1,-1,-1,-1,-1,-1,-1,-1,-1,-1,-1,-1,-1,-1,-1,-1,-1,-1,-1,-1,-1,-1,-1,-1,-1,-1,-1,-1,-1,-1,-1,-1,-1,-1,-1,-1,-1,-1,-1,-1,-1,-1,-1,-1],"loss_changes":[4.2721173E15,1.3964925E15,9.727202E14,3.4113167E14,4.5163007E14,3.4923345E14,1.136804E14,4.7394293E13,1.3958375E14,2.146666E14,1.1897449E14,1.5226478E14,5.488069E13,9.054194E12,4.9559628E13,7.7915404E12,2.2751918E12,4.1779294E13,1.8449848E13,5.155746E13,6.6627693E13,5.742559E13,2.0432267E13,5.7217017E13,2.7433164E13,1.9492575E13,8.2186884E12,5.3097372E11,6.8453726E12,4.688695E12,4.640511E13,2.8167603E12,1.8785113E12,1.134618E12,8.5545347E11,1.0573471E13,1.863083E13,8.0201845E12,3.4894323E12,1.8026632E13,1.8066811E13,2.9642052E13,1.7175977E13,1.5369054E13,9.946138E12,5.9826294E11,2.0323718E13,1.571854E13,8.98326E12,1.0256382E13,4.3245288E12,3.7628276E12,7.1591736E12,8.3572346E11,2.8225653E12,0E0,0E0,5.6666725E11,4.393114E12,0E0,1.0036567E13,1.3798891E13,1.0897741E13,0E0,0E0,0E0,0E0,0E0,0E0,0E0,0E0,0E0,0E0,0E0,0E0,0E0,0E0,0E0,0E0,0E0,0E0,0E0,0E0,0E0,0E0,0E0,0E0,0E0,0E0,0E0,0E0,0E0,0E0,0E0,0E0,0E0,0E0,0E0,0E0,0E0,0E0,0E0,0E0,0E0,0E0,0E0,0E0,0E0,0E0,0E0,0E0,0E0,0E0,0E0,0E0,0E0,0E0,0E0,0E0,0E0,0E0],"parents":[2147483647,0,0,1,1,2,2,3,3,4,4,5,5,6,6,7,7,8,8,9,9,10,10,11,11,12,12,13,13,14,14,15,15,16,16,17,17,18,18,19,19,20,20,21,21,22,22,23,23,24,24,25,25,26,26,27,27,28,28,29,29,30,30,31,31,32,32,33,33,34,34,35,35,36,36,37,37,38,38,39,39,40,40,41,41,42,42,43,43,44,44,45,45,46,46,47,47,48,48,49,49,50,50,51,51,52,52,53,53,54,54,57,57,58,58,60,60,61,61,62,62],"right_children":[2,4,6,8,10,12,14,16,18,20,22,24,26,28,30,32,34,36,38,40,42,44,46,48,50,52,54,56,58,60,62,64,66,68,70,72,74,76,78,80,82,84,86,88,90,92,94,96,98,100,102,104,106,108,110,-1,-1,112,114,-1,116,118,120,-1,-1,-1,-1,-1,-1,-1,-1,-1,-1,-1,-1,-1,-1,-1,-1,-1,-1,-1,-1,-1,-1,-1,-1,-1,-1,-1,-1,-1,-1,-1,-1,-1,-1,-1,-1,-1,-1,-1,-1,-1,-1,-1,-1,-1,-1,-1,-1,-1,-1,-1,-1,-1,-1,-1,-1,-1,-1],"split_conditions":[1.0064746E0,-2.0508762E-1,3.4416623E0,-7.607926E-1,1.5119776E0,2.8390863E0,3.5222316E0,-8.5261124E-1,2.0369202E-2,-2.736803E-1,3.4416623E0,8.6767536E-1,1.3960031E0,4.063446E0,2.7133849E0,-1.2230849E0,-5.336817E-1,-8.0428857E-1,4.302564E-1,5.100877E-1,4.42436E-1,-1.4299165E-1,1.7892772E-1,1.7876365E0,2.1433935E0,3.5222316E0,3.5222316E0,2.0698051E0,1.5589314E0,3.1873338E0,3.1873338E0,-1.2597858E0,-1.0370209E0,-1.1112759E0,-9.746468E-1,-3.3605444E-1,-3.0932269E-1,-7.430799E-1,-6.947572E-1,-8.5583895E-1,-9.033621E-1,3.6788225E-1,3.5303128E-1,-8.677197E-1,3.6788225E-1,-1.3340406E0,2.7133849E0,-1.50184985E-2,1.8149364E-1,1.6717988E0,1.7876365E0,5.100877E-1,